{"learner":{"attributes":{"best_iteration":"146","best_score":"0.3037037037037037"},"feature_names":["Sector","currentRatio","quickRatio","cashRatio","daysOfSalesOutstanding","netProfitMargin","pretaxProfitMargin","grossProfitMargin","operatingProfitMargin","returnOnAssets","returnOnCapitalEmployed","returnOnEquity","assetTurnover","fixedAssetTurnover","debtEquityRatio","debtRatio","effectiveTaxRate","freeCashFlowOperatingCashFlowRatio","freeCashFlowPerShare","cashPerShare","companyEquityMultiplier","ebitPerRevenue","enterpriseValueMultiple","operatingCashFlowPerShare","operatingCashFlowSalesRatio","payablesTurnover"],"feature_types":["int","float","float","float","float","float","float","float","float","float","float","float","float","float","float","float","float","float","float","float","float","float","float","float","float","float"],"gradient_booster":{"model":{"gbtree_model_param":{"num_parallel_tree":"1","num_trees":"4000"},"iteration_indptr":[0,4,8,12,16,20,24,28,32,36,40,44,48,52,56,60,64,68,72,76,80,84,88,92,96,100,104,108,112,116,120,124,128,132,136,140,144,148,152,156,160,164,168,172,176,180,184,188,192,196,200,204,208,212,216,220,224,228,232,236,240,244,248,252,256,260,264,268,272,276,280,284,288,292,296,300,304,308,312,316,320,324,328,332,336,340,344,348,352,356,360,364,368,372,376,380,384,388,392,396,400,404,408,412,416,420,424,428,432,436,440,444,448,452,456,460,464,468,472,476,480,484,488,492,496,500,504,508,512,516,520,524,528,532,536,540,544,548,552,556,560,564,568,572,576,580,584,588,592,596,600,604,608,612,616,620,624,628,632,636,640,644,648,652,656,660,664,668,672,676,680,684,688,692,696,700,704,708,712,716,720,724,728,732,736,740,744,748,752,756,760,764,768,772,776,780,784,788,792,796,800,804,808,812,816,820,824,828,832,836,840,844,848,852,856,860,864,868,872,876,880,884,888,892,896,900,904,908,912,916,920,924,928,932,936,940,944,948,952,956,960,964,968,972,976,980,984,988,992,996,1000,1004,1008,1012,1016,1020,1024,1028,1032,1036,1040,1044,1048,1052,1056,1060,1064,1068,1072,1076,1080,1084,1088,1092,1096,1100,1104,1108,1112,1116,1120,1124,1128,1132,1136,1140,1144,1148,1152,1156,1160,1164,1168,1172,1176,1180,1184,1188,1192,1196,1200,1204,1208,1212,1216,1220,1224,1228,1232,1236,1240,1244,1248,1252,1256,1260,1264,1268,1272,1276,1280,1284,1288,1292,1296,1300,1304,1308,1312,1316,1320,1324,1328,1332,1336,1340,1344,1348,1352,1356,1360,1364,1368,1372,1376,1380,1384,1388,1392,1396,1400,1404,1408,1412,1416,1420,1424,1428,1432,1436,1440,1444,1448,1452,1456,1460,1464,1468,1472,1476,1480,1484,1488,1492,1496,1500,1504,1508,1512,1516,1520,1524,1528,1532,1536,1540,1544,1548,1552,1556,1560,1564,1568,1572,1576,1580,1584,1588,1592,1596,1600,1604,1608,1612,1616,1620,1624,1628,1632,1636,1640,1644,1648,1652,1656,1660,1664,1668,1672,1676,1680,1684,1688,1692,1696,1700,1704,1708,1712,1716,1720,1724,1728,1732,1736,1740,1744,1748,1752,1756,1760,1764,1768,1772,1776,1780,1784,1788,1792,1796,1800,1804,1808,1812,1816,1820,1824,1828,1832,1836,1840,1844,1848,1852,1856,1860,1864,1868,1872,1876,1880,1884,1888,1892,1896,1900,1904,1908,1912,1916,1920,1924,1928,1932,1936,1940,1944,1948,1952,1956,1960,1964,1968,1972,1976,1980,1984,1988,1992,1996,2000,2004,2008,2012,2016,2020,2024,2028,2032,2036,2040,2044,2048,2052,2056,2060,2064,2068,2072,2076,2080,2084,2088,2092,2096,2100,2104,2108,2112,2116,2120,2124,2128,2132,2136,2140,2144,2148,2152,2156,2160,2164,2168,2172,2176,2180,2184,2188,2192,2196,2200,2204,2208,2212,2216,2220,2224,2228,2232,2236,2240,2244,2248,2252,2256,2260,2264,2268,2272,2276,2280,2284,2288,2292,2296,2300,2304,2308,2312,2316,2320,2324,2328,2332,2336,2340,2344,2348,2352,2356,2360,2364,2368,2372,2376,2380,2384,2388,2392,2396,2400,2404,2408,2412,2416,2420,2424,2428,2432,2436,2440,2444,2448,2452,2456,2460,2464,2468,2472,2476,2480,2484,2488,2492,2496,2500,2504,2508,2512,2516,2520,2524,2528,2532,2536,2540,2544,2548,2552,2556,2560,2564,2568,2572,2576,2580,2584,2588,2592,2596,2600,2604,2608,2612,2616,2620,2624,2628,2632,2636,2640,2644,2648,2652,2656,2660,2664,2668,2672,2676,2680,2684,2688,2692,2696,2700,2704,2708,2712,2716,2720,2724,2728,2732,2736,2740,2744,2748,2752,2756,2760,2764,2768,2772,2776,2780,2784,2788,2792,2796,2800,2804,2808,2812,2816,2820,2824,2828,2832,2836,2840,2844,2848,2852,2856,2860,2864,2868,2872,2876,2880,2884,2888,2892,2896,2900,2904,2908,2912,2916,2920,2924,2928,2932,2936,2940,2944,2948,2952,2956,2960,2964,2968,2972,2976,2980,2984,2988,2992,2996,3000,3004,3008,3012,3016,3020,3024,3028,3032,3036,3040,3044,3048,3052,3056,3060,3064,3068,3072,3076,3080,3084,3088,3092,3096,3100,3104,3108,3112,3116,3120,3124,3128,3132,3136,3140,3144,3148,3152,3156,3160,3164,3168,3172,3176,3180,3184,3188,3192,3196,3200,3204,3208,3212,3216,3220,3224,3228,3232,3236,3240,3244,3248,3252,3256,3260,3264,3268,3272,3276,3280,3284,3288,3292,3296,3300,3304,3308,3312,3316,3320,3324,3328,3332,3336,3340,3344,3348,3352,3356,3360,3364,3368,3372,3376,3380,3384,3388,3392,3396,3400,3404,3408,3412,3416,3420,3424,3428,3432,3436,3440,3444,3448,3452,3456,3460,3464,3468,3472,3476,3480,3484,3488,3492,3496,3500,3504,3508,3512,3516,3520,3524,3528,3532,3536,3540,3544,3548,3552,3556,3560,3564,3568,3572,3576,3580,3584,3588,3592,3596,3600,3604,3608,3612,3616,3620,3624,3628,3632,3636,3640,3644,3648,3652,3656,3660,3664,3668,3672,3676,3680,3684,3688,3692,3696,3700,3704,3708,3712,3716,3720,3724,3728,3732,3736,3740,3744,3748,3752,3756,3760,3764,3768,3772,3776,3780,3784,3788,3792,3796,3800,3804,3808,3812,3816,3820,3824,3828,3832,3836,3840,3844,3848,3852,3856,3860,3864,3868,3872,3876,3880,3884,3888,3892,3896,3900,3904,3908,3912,3916,3920,3924,3928,3932,3936,3940,3944,3948,3952,3956,3960,3964,3968,3972,3976,3980,3984,3988,3992,3996,4000],"tree_info":[0,1,2,3,0,1,2,3,0,1,2,3,0,1,2,3,0,1,2,3,0,1,2,3,0,1,2,3,0,1,2,3,0,1,2,3,0,1,2,3,0,1,2,3,0,1,2,3,0,1,2,3,0,1,2,3,0,1,2,3,0,1,2,3,0,1,2,3,0,1,2,3,0,1,2,3,0,1,2,3,0,1,2,3,0,1,2,3,0,1,2,3,0,1,2,3,0,1,2,3,0,1,2,3,0,1,2,3,0,1,2,3,0,1,2,3,0,1,2,3,0,1,2,3,0,1,2,3,0,1,2,3,0,1,2,3,0,1,2,3,0,1,2,3,0,1,2,3,0,1,2,3,0,1,2,3,0,1,2,3,0,1,2,3,0,1,2,3,0,1,2,3,0,1,2,3,0,1,2,3,0,1,2,3,0,1,2,3,0,1,2,3,0,1,2,3,0,1,2,3,0,1,2,3,0,1,2,3,0,1,2,3,0,1,2,3,0,1,2,3,0,1,2,3,0,1,2,3,0,1,2,3,0,1,2,3,0,1,2,3,0,1,2,3,0,1,2,3,0,1,2,3,0,1,2,3,0,1,2,3,0,1,2,3,0,1,2,3,0,1,2,3,0,1,2,3,0,1,2,3,0,1,2,3,0,1,2,3,0,1,2,3,0,1,2,3,0,1,2,3,0,1,2,3,0,1,2,3,0,1,2,3,0,1,2,3,0,1,2,3,0,1,2,3,0,1,2,3,0,1,2,3,0,1,2,3,0,1,2,3,0,1,2,3,0,1,2,3,0,1,2,3,0,1,2,3,0,1,2,3,0,1,2,3,0,1,2,3,0,1,2,3,0,1,2,3,0,1,2,3,0,1,2,3,0,1,2,3,0,1,2,3,0,1,2,3,0,1,2,3,0,1,2,3,0,1,2,3,0,1,2,3,0,1,2,3,0,1,2,3,0,1,2,3,0,1,2,3,0,1,2,3,0,1,2,3,0,1,2,3,0,1,2,3,0,1,2,3,0,1,2,3,0,1,2,3,0,1,2,3,0,1,2,3,0,1,2,3,0,1,2,3,0,1,2,3,0,1,2,3,0,1,2,3,0,1,2,3,0,1,2,3,0,1,2,3,0,1,2,3,0,1,2,3,0,1,2,3,0,1,2,3,0,1,2,3,0,1,2,3,0,1,2,3,0,1,2,3,0,1,2,3,0,1,2,3,0,1,2,3,0,1,2,3,0,1,2,3,0,1,2,3,0,1,2,3,0,1,2,3,0,1,2,3,0,1,2,3,0,1,2,3,0,1,2,3,0,1,2,3,0,1,2,3,0,1,2,3,0,1,2,3,0,1,2,3,0,1,2,3,0,1,2,3,0,1,2,3,0,1,2,3,0,1,2,3,0,1,2,3,0,1,2,3,0,1,2,3,0,1,2,3,0,1,2,3,0,1,2,3,0,1,2,3,0,1,2,3,0,1,2,3,0,1,2,3,0,1,2,3,0,1,2,3,0,1,2,3,0,1,2,3,0,1,2,3,0,1,2,3,0,1,2,3,0,1,2,3,0,1,2,3,0,1,2,3,0,1,2,3,0,1,2,3,0,1,2,3,0,1,2,3,0,1,2,3,0,1,2,3,0,1,2,3,0,1,2,3,0,1,2,3,0,1,2,3,0,1,2,3,0,1,2,3,0,1,2,3,0,1,2,3,0,1,2,3,0,1,2,3,0,1,2,3,0,1,2,3,0,1,2,3,0,1,2,3,0,1,2,3,0,1,2,3,0,1,2,3,0,1,2,3,0,1,2,3,0,1,2,3,0,1,2,3,0,1,2,3,0,1,2,3,0,1,2,3,0,1,2,3,0,1,2,3,0,1,2,3,0,1,2,3,0,1,2,3,0,1,2,3,0,1,2,3,0,1,2,3,0,1,2,3,0,1,2,3,0,1,2,3,0,1,2,3,0,1,2,3,0,1,2,3,0,1,2,3,0,1,2,3,0,1,2,3,0,1,2,3,0,1,2,3,0,1,2,3,0,1,2,3,0,1,2,3,0,1,2,3,0,1,2,3,0,1,2,3,0,1,2,3,0,1,2,3,0,1,2,3,0,1,2,3,0,1,2,3,0,1,2,3,0,1,2,3,0,1,2,3,0,1,2,3,0,1,2,3,0,1,2,3,0,1,2,3,0,1,2,3,0,1,2,3,0,1,2,3,0,1,2,3,0,1,2,3,0,1,2,3,0,1,2,3,0,1,2,3,0,1,2,3,0,1,2,3,0,1,2,3,0,1,2,3,0,1,2,3,0,1,2,3,0,1,2,3,0,1,2,3,0,1,2,3,0,1,2,3,0,1,2,3,0,1,2,3,0,1,2,3,0,1,2,3,0,1,2,3,0,1,2,3,0,1,2,3,0,1,2,3,0,1,2,3,0,1,2,3,0,1,2,3,0,1,2,3,0,1,2,3,0,1,2,3,0,1,2,3,0,1,2,3,0,1,2,3,0,1,2,3,0,1,2,3,0,1,2,3,0,1,2,3,0,1,2,3,0,1,2,3,0,1,2,3,0,1,2,3,0,1,2,3,0,1,2,3,0,1,2,3,0,1,2,3,0,1,2,3,0,1,2,3,0,1,2,3,0,1,2,3,0,1,2,3,0,1,2,3,0,1,2,3,0,1,2,3,0,1,2,3,0,1,2,3,0,1,2,3,0,1,2,3,0,1,2,3,0,1,2,3,0,1,2,3,0,1,2,3,0,1,2,3,0,1,2,3,0,1,2,3,0,1,2,3,0,1,2,3,0,1,2,3,0,1,2,3,0,1,2,3,0,1,2,3,0,1,2,3,0,1,2,3,0,1,2,3,0,1,2,3,0,1,2,3,0,1,2,3,0,1,2,3,0,1,2,3,0,1,2,3,0,1,2,3,0,1,2,3,0,1,2,3,0,1,2,3,0,1,2,3,0,1,2,3,0,1,2,3,0,1,2,3,0,1,2,3,0,1,2,3,0,1,2,3,0,1,2,3,0,1,2,3,0,1,2,3,0,1,2,3,0,1,2,3,0,1,2,3,0,1,2,3,0,1,2,3,0,1,2,3,0,1,2,3,0,1,2,3,0,1,2,3,0,1,2,3,0,1,2,3,0,1,2,3,0,1,2,3,0,1,2,3,0,1,2,3,0,1,2,3,0,1,2,3,0,1,2,3,0,1,2,3,0,1,2,3,0,1,2,3,0,1,2,3,0,1,2,3,0,1,2,3,0,1,2,3,0,1,2,3,0,1,2,3,0,1,2,3,0,1,2,3,0,1,2,3,0,1,2,3,0,1,2,3,0,1,2,3,0,1,2,3,0,1,2,3,0,1,2,3,0,1,2,3,0,1,2,3,0,1,2,3,0,1,2,3,0,1,2,3,0,1,2,3,0,1,2,3,0,1,2,3,0,1,2,3,0,1,2,3,0,1,2,3,0,1,2,3,0,1,2,3,0,1,2,3,0,1,2,3,0,1,2,3,0,1,2,3,0,1,2,3,0,1,2,3,0,1,2,3,0,1,2,3,0,1,2,3,0,1,2,3,0,1,2,3,0,1,2,3,0,1,2,3,0,1,2,3,0,1,2,3,0,1,2,3,0,1,2,3,0,1,2,3,0,1,2,3,0,1,2,3,0,1,2,3,0,1,2,3,0,1,2,3,0,1,2,3,0,1,2,3,0,1,2,3,0,1,2,3,0,1,2,3,0,1,2,3,0,1,2,3,0,1,2,3,0,1,2,3,0,1,2,3,0,1,2,3,0,1,2,3,0,1,2,3,0,1,2,3,0,1,2,3,0,1,2,3,0,1,2,3,0,1,2,3,0,1,2,3,0,1,2,3,0,1,2,3,0,1,2,3,0,1,2,3,0,1,2,3,0,1,2,3,0,1,2,3,0,1,2,3,0,1,2,3,0,1,2,3,0,1,2,3,0,1,2,3,0,1,2,3,0,1,2,3,0,1,2,3,0,1,2,3,0,1,2,3,0,1,2,3,0,1,2,3,0,1,2,3,0,1,2,3,0,1,2,3,0,1,2,3,0,1,2,3,0,1,2,3,0,1,2,3,0,1,2,3,0,1,2,3,0,1,2,3,0,1,2,3,0,1,2,3,0,1,2,3,0,1,2,3,0,1,2,3,0,1,2,3,0,1,2,3,0,1,2,3,0,1,2,3,0,1,2,3,0,1,2,3,0,1,2,3,0,1,2,3,0,1,2,3,0,1,2,3,0,1,2,3,0,1,2,3,0,1,2,3,0,1,2,3,0,1,2,3,0,1,2,3,0,1,2,3,0,1,2,3,0,1,2,3,0,1,2,3,0,1,2,3,0,1,2,3,0,1,2,3,0,1,2,3,0,1,2,3,0,1,2,3,0,1,2,3,0,1,2,3,0,1,2,3,0,1,2,3,0,1,2,3,0,1,2,3,0,1,2,3,0,1,2,3,0,1,2,3,0,1,2,3,0,1,2,3,0,1,2,3,0,1,2,3,0,1,2,3,0,1,2,3,0,1,2,3,0,1,2,3,0,1,2,3,0,1,2,3,0,1,2,3,0,1,2,3,0,1,2,3,0,1,2,3,0,1,2,3,0,1,2,3,0,1,2,3,0,1,2,3,0,1,2,3,0,1,2,3,0,1,2,3,0,1,2,3,0,1,2,3,0,1,2,3,0,1,2,3,0,1,2,3,0,1,2,3,0,1,2,3,0,1,2,3,0,1,2,3,0,1,2,3,0,1,2,3,0,1,2,3,0,1,2,3,0,1,2,3,0,1,2,3,0,1,2,3,0,1,2,3,0,1,2,3,0,1,2,3,0,1,2,3,0,1,2,3,0,1,2,3,0,1,2,3,0,1,2,3,0,1,2,3,0,1,2,3,0,1,2,3,0,1,2,3,0,1,2,3,0,1,2,3,0,1,2,3,0,1,2,3,0,1,2,3,0,1,2,3,0,1,2,3,0,1,2,3,0,1,2,3,0,1,2,3,0,1,2,3,0,1,2,3,0,1,2,3,0,1,2,3,0,1,2,3,0,1,2,3,0,1,2,3,0,1,2,3,0,1,2,3,0,1,2,3,0,1,2,3,0,1,2,3,0,1,2,3,0,1,2,3,0,1,2,3,0,1,2,3,0,1,2,3,0,1,2,3,0,1,2,3,0,1,2,3,0,1,2,3,0,1,2,3,0,1,2,3,0,1,2,3,0,1,2,3,0,1,2,3,0,1,2,3,0,1,2,3,0,1,2,3,0,1,2,3,0,1,2,3,0,1,2,3,0,1,2,3,0,1,2,3,0,1,2,3,0,1,2,3,0,1,2,3,0,1,2,3,0,1,2,3,0,1,2,3,0,1,2,3,0,1,2,3,0,1,2,3,0,1,2,3,0,1,2,3,0,1,2,3,0,1,2,3,0,1,2,3,0,1,2,3,0,1,2,3,0,1,2,3,0,1,2,3,0,1,2,3,0,1,2,3,0,1,2,3,0,1,2,3,0,1,2,3,0,1,2,3,0,1,2,3,0,1,2,3,0,1,2,3,0,1,2,3,0,1,2,3,0,1,2,3,0,1,2,3,0,1,2,3,0,1,2,3,0,1,2,3,0,1,2,3,0,1,2,3,0,1,2,3,0,1,2,3,0,1,2,3,0,1,2,3,0,1,2,3,0,1,2,3,0,1,2,3,0,1,2,3,0,1,2,3,0,1,2,3,0,1,2,3,0,1,2,3,0,1,2,3,0,1,2,3,0,1,2,3,0,1,2,3,0,1,2,3,0,1,2,3,0,1,2,3,0,1,2,3,0,1,2,3,0,1,2,3,0,1,2,3,0,1,2,3,0,1,2,3,0,1,2,3,0,1,2,3,0,1,2,3,0,1,2,3,0,1,2,3,0,1,2,3,0,1,2,3,0,1,2,3,0,1,2,3,0,1,2,3,0,1,2,3,0,1,2,3,0,1,2,3,0,1,2,3,0,1,2,3,0,1,2,3,0,1,2,3,0,1,2,3,0,1,2,3,0,1,2,3,0,1,2,3,0,1,2,3,0,1,2,3,0,1,2,3,0,1,2,3,0,1,2,3,0,1,2,3,0,1,2,3,0,1,2,3,0,1,2,3,0,1,2,3,0,1,2,3,0,1,2,3,0,1,2,3,0,1,2,3,0,1,2,3,0,1,2,3,0,1,2,3,0,1,2,3,0,1,2,3,0,1,2,3,0,1,2,3,0,1,2,3,0,1,2,3,0,1,2,3,0,1,2,3,0,1,2,3,0,1,2,3,0,1,2,3,0,1,2,3,0,1,2,3,0,1,2,3,0,1,2,3,0,1,2,3,0,1,2,3,0,1,2,3,0,1,2,3,0,1,2,3,0,1,2,3,0,1,2,3,0,1,2,3,0,1,2,3,0,1,2,3,0,1,2,3,0,1,2,3,0,1,2,3,0,1,2,3,0,1,2,3,0,1,2,3,0,1,2,3,0,1,2,3,0,1,2,3,0,1,2,3,0,1,2,3,0,1,2,3,0,1,2,3,0,1,2,3,0,1,2,3,0,1,2,3,0,1,2,3,0,1,2,3,0,1,2,3,0,1,2,3,0,1,2,3,0,1,2,3,0,1,2,3,0,1,2,3,0,1,2,3,0,1,2,3,0,1,2,3,0,1,2,3,0,1,2,3,0,1,2,3,0,1,2,3,0,1,2,3,0,1,2,3,0,1,2,3,0,1,2,3,0,1,2,3,0,1,2,3,0,1,2,3,0,1,2,3,0,1,2,3,0,1,2,3,0,1,2,3,0,1,2,3,0,1,2,3,0,1,2,3,0,1,2,3,0,1,2,3,0,1,2,3,0,1,2,3,0,1,2,3,0,1,2,3,0,1,2,3,0,1,2,3,0,1,2,3,0,1,2,3,0,1,2,3,0,1,2,3,0,1,2,3,0,1,2,3,0,1,2,3,0,1,2,3,0,1,2,3,0,1,2,3,0,1,2,3,0,1,2,3,0,1,2,3,0,1,2,3,0,1,2,3,0,1,2,3,0,1,2,3,0,1,2,3,0,1,2,3,0,1,2,3,0,1,2,3,0,1,2,3,0,1,2,3,0,1,2,3,0,1,2,3,0,1,2,3,0,1,2,3,0,1,2,3,0,1,2,3,0,1,2,3,0,1,2,3,0,1,2,3,0,1,2,3,0,1,2,3,0,1,2,3,0,1,2,3,0,1,2,3,0,1,2,3,0,1,2,3,0,1,2,3,0,1,2,3,0,1,2,3,0,1,2,3,0,1,2,3,0,1,2,3,0,1,2,3,0,1,2,3,0,1,2,3,0,1,2,3,0,1,2,3,0,1,2,3,0,1,2,3,0,1,2,3,0,1,2,3,0,1,2,3,0,1,2,3,0,1,2,3,0,1,2,3,0,1,2,3,0,1,2,3,0,1,2,3,0,1,2,3,0,1,2,3,0,1,2,3,0,1,2,3,0,1,2,3,0,1,2,3,0,1,2,3,0,1,2,3,0,1,2,3,0,1,2,3,0,1,2,3,0,1,2,3,0,1,2,3,0,1,2,3,0,1,2,3,0,1,2,3,0,1,2,3,0,1,2,3,0,1,2,3,0,1,2,3,0,1,2,3,0,1,2,3,0,1,2,3,0,1,2,3,0,1,2,3,0,1,2,3,0,1,2,3,0,1,2,3,0,1,2,3,0,1,2,3,0,1,2,3,0,1,2,3,0,1,2,3,0,1,2,3,0,1,2,3,0,1,2,3,0,1,2,3,0,1,2,3,0,1,2,3,0,1,2,3,0,1,2,3,0,1,2,3,0,1,2,3,0,1,2,3,0,1,2,3,0,1,2,3,0,1,2,3,0,1,2,3,0,1,2,3,0,1,2,3,0,1,2,3,0,1,2,3,0,1,2,3,0,1,2,3,0,1,2,3,0,1,2,3,0,1,2,3,0,1,2,3,0,1,2,3,0,1,2,3,0,1,2,3,0,1,2,3,0,1,2,3,0,1,2,3,0,1,2,3,0,1,2,3,0,1,2,3,0,1,2,3,0,1,2,3,0,1,2,3,0,1,2,3,0,1,2,3,0,1,2,3,0,1,2,3,0,1,2,3,0,1,2,3,0,1,2,3,0,1,2,3,0,1,2,3,0,1,2,3,0,1,2,3,0,1,2,3,0,1,2,3,0,1,2,3,0,1,2,3,0,1,2,3,0,1,2,3,0,1,2,3,0,1,2,3,0,1,2,3,0,1,2,3,0,1,2,3,0,1,2,3,0,1,2,3,0,1,2,3,0,1,2,3,0,1,2,3,0,1,2,3,0,1,2,3,0,1,2,3,0,1,2,3,0,1,2,3,0,1,2,3,0,1,2,3,0,1,2,3,0,1,2,3,0,1,2,3,0,1,2,3,0,1,2,3,0,1,2,3,0,1,2,3,0,1,2,3,0,1,2,3,0,1,2,3,0,1,2,3,0,1,2,3,0,1,2,3,0,1,2,3,0,1,2,3,0,1,2,3,0,1,2,3,0,1,2,3,0,1,2,3,0,1,2,3,0,1,2,3,0,1,2,3,0,1,2,3,0,1,2,3,0,1,2,3,0,1,2,3,0,1,2,3,0,1,2,3,0,1,2,3,0,1,2,3,0,1,2,3,0,1,2,3,0,1,2,3,0,1,2,3,0,1,2,3,0,1,2,3,0,1,2,3,0,1,2,3,0,1,2,3,0,1,2,3,0,1,2,3,0,1,2,3,0,1,2,3,0,1,2,3,0,1,2,3,0,1,2,3,0,1,2,3,0,1,2,3,0,1,2,3,0,1,2,3,0,1,2,3,0,1,2,3,0,1,2,3,0,1,2,3,0,1,2,3,0,1,2,3,0,1,2,3,0,1,2,3,0,1,2,3,0,1,2,3,0,1,2,3,0,1,2,3,0,1,2,3,0,1,2,3,0,1,2,3,0,1,2,3,0,1,2,3,0,1,2,3,0,1,2,3],"trees":[{"base_weights":[3.9672056E-1,7.9696393E-1,2.7062418E-2,1.0007098E0,3.8189533E-1,6.511628E-1,-8.286445E-2,8.602941E-1,1.4407295E0,3.9789474E-1,2.3225807E-1,1.0909091E0,1.8181819E-1,-1.69648E-1,5.7391304E-1,9.4079655E-1,3.7125748E-1,5.0484586E-1,8.363636E-1,5.3150684E-1,-1.9011407E-1,6.938776E-1,4.3255815E-1,-3.272727E-1,2.7567568E-1,-2.2114216E-1,7.368421E-1,9.589041E-1,-8.695652E-2,1.0111248E0,4.375E-1,7.256637E-1,-9.67742E-2,7.058824E-2,4.56E-1,1.1044776E0,1.9246861E-1,7.29927E-2,-4.477612E-1,7.2000004E-2,3E-1,-1.7647061E-1,2.4E-2,2.122905E-1,-2.725424E-1,5.04E-1,-7.9245284E-2,1.2676057E-1,3.9759037E-1,1.20000005E-1,-1.6800001E-1,8.86076E-1,1.3945946E0,-8.450705E-3,2.6769233E-1,4.2857146E-1,9.230769E-3,1.7647061E-1,4.3783784E-1,-3.272727E-1,5.985401E-1,-6.9767445E-2,1.5254238E-1,-1.826087E-1,-2.4E-2,-2.9850746E-2,2.3773585E-1,2.0979021E-1,-3.2238805E-1,1.20000005E-1,3.3458823E-1,4.878505E-1,2.9302326E-1,2.4E-2,-1.7647061E-1,6.9473684E-2,3.6E-1,8.764045E-2,-1.6981132E-1,-1.0153847E-1,1.8139535E-1,-2.3904385E-3,-1.1759344E-1],"categories":[],"categories_nodes":[],"categories_segments":[],"categories_sizes":[],"default_left":[0,0,0,0,0,0,0,0,0,0,0,0,0,0,0,0,0,0,0,0,0,0,0,0,0,0,0,0,0,0,0,0,0,0,0,0,0,0,0,0,0,0,0,0,0,0,0,0,0,0,0,0,0,0,0,0,0,0,0,0,0,0,0,0,0,0,0,0,0,0,0,0,0,0,0,0,0,0,0,0,0,0,0],"id":0,"left_children":[1,3,5,7,9,11,13,15,17,-1,19,21,23,25,27,29,31,-1,33,35,37,39,-1,41,-1,43,45,47,49,51,53,55,-1,-1,-1,57,59,61,63,-1,-1,-1,-1,65,67,-1,-1,-1,-1,-1,-1,69,71,-1,-1,-1,-1,-1,-1,73,75,-1,-1,-1,-1,77,-1,79,81,-1,-1,-1,-1,-1,-1,-1,-1,-1,-1,-1,-1,-1,-1],"loss_changes":[8.118626E1,2.1901627E1,1.9700829E1,9.642548E0,1.218115E1,8.676533E0,1.4026125E1,5.0048523E0,4.609581E0,0E0,9.896608E0,2.0649776E0,8.556266E0,1.0274775E1,7.3982134E0,3.6679916E0,5.3672595E0,0E0,5.292406E0,8.650491E0,2.261237E0,1.4620409E0,0E0,1.5084491E0,0E0,4.6416655E0,1.1654896E1,3.026575E0,2.8730435E0,3.6134796E0,3.413773E0,6.8553534E0,0E0,0E0,0E0,2.2110424E0,6.501069E0,2.396934E0,9.4266057E-1,0E0,0E0,0E0,0E0,3.166923E0,4.500413E0,0E0,0E0,0E0,0E0,0E0,0E0,8.355862E0,6.492958E-1,0E0,0E0,0E0,0E0,0E0,0E0,1.5084491E0,3.5018053E0,0E0,0E0,0E0,0E0,3.0571542E0,0E0,4.074289E0,3.6618614E0,0E0,0E0,0E0,0E0,0E0,0E0,0E0,0E0,0E0,0E0,0E0,0E0,0E0,0E0],"parents":[2147483647,0,0,1,1,2,2,3,3,4,4,5,5,6,6,7,7,8,8,10,10,11,11,12,12,13,13,14,14,15,15,16,16,18,18,19,19,20,20,21,21,23,23,25,25,26,26,27,27,28,28,29,29,30,30,31,31,35,35,36,36,37,37,38,38,43,43,44,44,51,51,52,52,59,59,60,60,65,65,67,67,68,68],"right_children":[2,4,6,8,10,12,14,16,18,-1,20,22,24,26,28,30,32,-1,34,36,38,40,-1,42,-1,44,46,48,50,52,54,56,-1,-1,-1,58,60,62,64,-1,-1,-1,-1,66,68,-1,-1,-1,-1,-1,-1,70,72,-1,-1,-1,-1,-1,-1,74,76,-1,-1,-1,-1,78,-1,80,82,-1,-1,-1,-1,-1,-1,-1,-1,-1,-1,-1,-1,-1,-1],"split_conditions":[8.1615746E-2,6.1602417E-2,2.60388E-1,9.9350065E-1,4.3585052E0,9.422548E-1,1.0736185E0,5.827263E-1,4.827848E0,3.9789474E-1,5.608639E0,2.2639991E-1,8.867892E-1,3.801626E-1,1.8192664E-1,5.95373E-2,6.146872E0,5.0484586E-1,7.429269E-1,7.5634995E0,4E0,6.450815E-1,4.3255815E-1,4.984798E1,2.7567568E-1,8.349901E-2,2.0073308E-1,5.18847E-1,4.925703E-1,1.6254162E0,1.9711756E0,5.854537E-3,-9.67742E-2,7.058824E-2,4.56E-1,1.3497663E0,7.726222E-1,1.3754634E0,3.9516903E1,7.2000004E-2,3E-1,-1.7647061E-1,2.4E-2,2.9539871E0,7.4943554E-1,5.04E-1,-7.9245284E-2,1.2676057E-1,3.9759037E-1,1.20000005E-1,-1.6800001E-1,5.9033597E-1,7.848168E0,-8.450705E-3,2.6769233E-1,4.2857146E-1,9.230769E-3,1.7647061E-1,4.3783784E-1,4.72653E-1,6.7827487E-1,-6.9767445E-2,1.5254238E-1,-1.826087E-1,-2.4E-2,6.0016817E-1,2.3773585E-1,3.5144472E-1,5.7339926E0,1.20000005E-1,3.3458823E-1,4.878505E-1,2.9302326E-1,2.4E-2,-1.7647061E-1,6.9473684E-2,3.6E-1,8.764045E-2,-1.6981132E-1,-1.0153847E-1,1.8139535E-1,-2.3904385E-3,-1.1759344E-1],"split_indices":[21,10,12,12,22,7,3,16,19,0,19,21,17,21,6,21,19,0,15,22,0,2,0,4,0,16,3,15,12,2,18,6,0,0,0,1,2,12,4,0,0,0,0,20,19,0,0,0,0,0,0,15,19,0,0,0,0,0,0,2,15,0,0,0,0,15,0,17,22,0,0,0,0,0,0,0,0,0,0,0,0,0,0],"split_type":[0,0,0,0,0,0,0,0,0,0,0,0,0,0,0,0,0,0,0,0,0,0,0,0,0,0,0,0,0,0,0,0,0,0,0,0,0,0,0,0,0,0,0,0,0,0,0,0,0,0,0,0,0,0,0,0,0,0,0,0,0,0,0,0,0,0,0,0,0,0,0,0,0,0,0,0,0,0,0,0,0,0,0],"sum_hessian":[5.47875E2,2.625E2,2.85375E2,1.75125E2,8.7375E1,4.2E1,2.43375E2,1.35E2,4.0125E1,1.0875E1,7.65E1,2.1E1,2.1E1,2.15625E2,2.775E1,1.15125E2,1.9875E1,2.7375E1,1.275E1,4.4625E1,3.1875E1,1.125E1,9.75E0,1.275E1,8.25E0,2.0475E2,1.0875E1,1.725E1,1.05E1,1.00125E2,1.5E1,1.3125E1,6.75E0,7.5E0,5.25E0,1.575E1,2.8875E1,1.6125E1,1.575E1,5.25E0,6E0,7.5E0,5.25E0,2.1375E1,1.83375E2,5.25E0,5.625E0,7.875E0,9.375E0,5.25E0,5.25E0,7.8E1,2.2125E1,7.875E0,7.125E0,6E0,7.125E0,7.5E0,8.25E0,1.275E1,1.6125E1,9.75E0,6.375E0,1.05E1,5.25E0,1.575E1,5.625E0,1.6875E1,1.665E2,2.5875E1,5.2125E1,1.2375E1,9.75E0,5.25E0,7.5E0,1.0875E1,5.25E0,1.0125E1,5.625E0,7.125E0,9.75E0,3.0375E1,1.36125E2],"tree_param":{"num_deleted":"0","num_feature":"26","num_nodes":"83","size_leaf_vector":"1"}},{"base_weights":[-5.6540865E-1,2.3389831E-1,-5.8294284E-1,-2.8820962E-1,-6.17077E-1,-4.2487046E-1,1.20000005E-1,-6.228117E-1,-4.2857148E-2,2.4E-2,-4.883721E-1,-5.251397E-1,-6.4402354E-1,-5.454546E-2,-5.6E-1,-3.4042552E-1,-5.8208954E-1,-1.9598854E-1,-5.323741E-1,-1.8283263E-1,-7.2000004E-2,-5E-1,-0E0,-4.262295E-1,-6.161137E-1,-1.8305084E-1,-2.4E-2,-7.2000004E-2,-1.8139535E-1,-6.461539E-2,-1.7538463E-1,-1.1688312E-1,-1.9546744E-1],"categories":[],"categories_nodes":[],"categories_segments":[],"categories_sizes":[],"default_left":[0,0,0,0,0,0,0,0,0,0,0,0,0,0,0,0,0,0,0,0,0,0,0,0,0,0,0,0,0,0,0,0,0],"id":1,"left_children":[1,-1,3,5,7,9,-1,11,-1,-1,13,15,17,-1,19,21,23,-1,25,-1,-1,27,-1,29,31,-1,-1,-1,-1,-1,-1,-1,-1],"loss_changes":[1.3187286E1,0E0,5.1894073E0,5.5543866E0,1.2089081E0,1.585969E0,0E0,6.381378E-1,0E0,0E0,8.423681E-1,7.433319E-1,4.8416138E-2,0E0,3.9759636E-1,1.2765958E0,9.269714E-2,0E0,1.1741304E0,0E0,0E0,2.9023266E-1,0E0,3.8335443E-1,1.6963577E-1,0E0,0E0,0E0,0E0,0E0,0E0,0E0,0E0],"parents":[2147483647,0,0,2,2,3,3,4,4,5,5,7,7,10,10,11,11,12,12,14,14,15,15,16,16,18,18,21,21,23,23,24,24],"right_children":[2,-1,4,6,8,10,-1,12,-1,-1,14,16,18,-1,20,22,24,-1,26,-1,-1,28,-1,30,32,-1,-1,-1,-1,-1,-1,-1,-1],"split_conditions":[-8.630813E-2,2.3389831E-1,-2.5246456E-2,9.127131E-1,1.3560145E0,1.0616628E-2,1.20000005E-1,3.4115277E-2,-4.2857148E-2,2.4E-2,8.965798E-1,1.9842562E-1,4.373024E-1,-5.454546E-2,2.6988468E0,6E0,4.5811505E0,-1.9598854E-1,2.522285E0,-1.8283263E-1,-7.2000004E-2,-7.047646E-1,-0E0,2.866779E-1,2.0155666E0,-1.8305084E-1,-2.4E-2,-7.2000004E-2,-1.8139535E-1,-6.461539E-2,-1.7538463E-1,-1.1688312E-1,-1.9546744E-1],"split_indices":[24,0,21,15,15,24,0,21,0,0,1,17,24,0,1,0,25,0,1,0,0,17,0,16,20,0,0,0,0,0,0,0,0],"split_type":[0,0,0,0,0,0,0,0,0,0,0,0,0,0,0,0,0,0,0,0,0,0,0,0,0,0,0,0,0,0,0,0,0],"sum_hessian":[5.38875E2,6.375E0,5.325E2,5.625E1,4.7625E2,4.725E1,9E0,4.7025E2,6E0,5.25E0,4.2E1,8.85E1,3.8175E2,8.625E0,3.3375E1,2.25E1,6.6E1,3.48E2,3.375E1,2.8125E1,5.25E0,1.5E1,7.5E0,1.425E1,5.175E1,2.85E1,5.25E0,5.25E0,9.75E0,7.125E0,7.125E0,8.625E0,4.3125E1],"tree_param":{"num_deleted":"0","num_feature":"26","num_nodes":"33","size_leaf_vector":"1"}},{"base_weights":[-5.300113E-2,-3.9754277E-1,3.1343284E-1,-5.406532E-1,-1.509434E-1,1.3266583E-1,8.303249E-1,-6.2310386E-1,-4.1355932E-1,2.172702E-1,-4.144869E-1,2.1331425E-1,-4.1148326E-1,9.6E-1,-9.67742E-2,-1.979221E-1,-2.736842E-1,-4.96E-1,4.0816326E-2,3.9370078E-1,-1.9469027E-1,-5.316456E-1,3.6363635E-2,-4.6575344E-1,2.907069E-1,-5.3892213E-1,2.4E-2,2.5352113E-2,1.0846682E0,-1.6981132E-1,2.4E-2,-5.676856E-1,7.2000004E-2,-1.6981132E-1,1.9245283E-1,-1.12E-1,8.321168E-1,-1.4117648E-1,5.660378E-2,-5.8285713E-1,-3.3962265E-2,-1.0153847E-1,1.4716981E-1,-4.2857148E-2,-1.8367347E-1,5.321101E-1,1.0526316E-1,-7.2000004E-2,-1.8720001E-1,-2.4E-2,1.2101266E0,-1.8805972E-1,-3.816794E-1,-1.2857144E-1,3.896104E-2,4.0800002E-1,4.8421052E-1,-1.8688524E-1,-7.9245284E-2,-1.5267176E-2,6.919431E-1,6.577181E-1,-3.786575E-2,1.5E-1,1.3560371E0,-1.8202247E-1,2.4E-2,2.64E-1,1.1320755E-2,2.1600002E-1,-1.2808989E-1,1.8947368E-2,2.561194E-1,-1.20000005E-1,3.3084112E-1,-1.5918368E-1,1.832994E-2,4.6779662E-1,2.2105263E-1],"categories":[],"categories_nodes":[],"categories_segments":[],"categories_sizes":[],"default_left":[0,0,0,0,0,0,0,0,0,0,0,0,0,0,0,0,0,0,0,0,0,0,0,0,0,0,0,0,0,0,0,0,0,0,0,0,0,0,0,0,0,0,0,0,0,0,0,0,0,0,0,0,0,0,0,0,0,0,0,0,0,0,0,0,0,0,0,0,0,0,0,0,0,0,0,0,0,0,0],"id":2,"left_children":[1,3,5,7,9,11,13,15,17,19,21,23,25,27,-1,-1,29,31,33,35,37,39,41,43,45,47,-1,-1,49,-1,-1,51,-1,-1,-1,53,55,-1,-1,57,-1,-1,-1,-1,-1,59,61,-1,-1,-1,63,-1,65,-1,-1,-1,67,-1,-1,69,71,73,75,-1,77,-1,-1,-1,-1,-1,-1,-1,-1,-1,-1,-1,-1,-1,-1],"loss_changes":[6.97998E1,9.971901E0,2.493097E1,1.6272163E0,1.0376328E1,8.853756E0,1.06627655E1,1.1907959E0,2.7828493E0,3.338274E0,3.3008394E0,9.31279E0,1.6794295E0,6.729973E0,0E0,0E0,1.2731678E0,3.4337816E0,4.8286486E0,7.1324043E0,1.5828037E0,9.920664E-1,2.506927E0,7.7579E-1,6.989149E0,3.8112593E-1,0E0,0E0,8.078468E0,0E0,0E0,3.909378E-1,0E0,0E0,0E0,1.252052E0,2.4865465E0,0E0,0E0,3.944893E-1,0E0,0E0,0E0,0E0,0E0,5.970751E0,7.1611776E0,0E0,0E0,0E0,4.437973E0,0E0,1.7500095E0,0E0,0E0,0E0,2.0652235E0,0E0,0E0,5.2642736E0,5.31234E0,9.209309E0,3.5739732E0,0E0,3.9331436E0,0E0,0E0,0E0,0E0,0E0,0E0,0E0,0E0,0E0,0E0,0E0,0E0,0E0,0E0],"parents":[2147483647,0,0,1,1,2,2,3,3,4,4,5,5,6,6,7,7,8,8,9,9,10,10,11,11,12,12,13,13,16,16,17,17,18,18,19,19,20,20,21,21,22,22,23,23,24,24,25,25,28,28,31,31,35,35,36,36,39,39,45,45,46,46,50,50,52,52,56,56,59,59,60,60,61,61,62,62,64,64],"right_children":[2,4,6,8,10,12,14,16,18,20,22,24,26,28,-1,-1,30,32,34,36,38,40,42,44,46,48,-1,-1,50,-1,-1,52,-1,-1,-1,54,56,-1,-1,58,-1,-1,-1,-1,-1,60,62,-1,-1,-1,64,-1,66,-1,-1,-1,68,-1,-1,70,72,74,76,-1,78,-1,-1,-1,-1,-1,-1,-1,-1,-1,-1,-1,-1,-1,-1],"split_conditions":[8.73221E-2,1.1035203E-1,8.416107E-1,2.4927845E-2,6.570862E-1,5.390731E-1,1.6441281E0,7.868146E-1,1.234279E0,8.6908355E-2,6.9010415E0,1.8263736E0,2.0261257E0,9.318776E-2,-9.67742E-2,-1.979221E-1,1.2552772E1,2.7134645E-1,9.000716E0,7.3946505E0,3.9459178E-1,1.8608444E1,3.0777958E-1,1.2099336E-1,8.720317E-1,2.946249E-1,2.4E-2,2.5352113E-2,1.9958451E-1,-1.6981132E-1,2.4E-2,1.5072526E-1,7.2000004E-2,-1.6981132E-1,1.9245283E-1,1.5186435E-1,4.8512317E-2,-1.4117648E-1,5.660378E-2,1.4100561E1,-3.3962265E-2,-1.0153847E-1,1.4716981E-1,-4.2857148E-2,-1.8367347E-1,3.9233356E0,4.6072963E-1,-7.2000004E-2,-1.8720001E-1,-2.4E-2,4.9322674E-1,-1.8805972E-1,4.925703E-1,-1.2857144E-1,3.896104E-2,4.0800002E-1,6.0692267E0,-1.8688524E-1,-7.9245284E-2,1.510579E0,6.1992574E0,1.11146756E-1,5.0077543E0,1.5E-1,1.5072526E-1,-1.8202247E-1,2.4E-2,2.64E-1,1.1320755E-2,2.1600002E-1,-1.2808989E-1,1.8947368E-2,2.561194E-1,-1.20000005E-1,3.3084112E-1,-1.5918368E-1,1.832994E-2,4.6779662E-1,2.2105263E-1],"split_indices":[6,11,12,21,15,24,2,16,12,8,23,23,25,6,0,0,22,24,22,22,7,22,16,24,2,6,0,0,7,0,0,24,0,0,0,11,8,0,0,13,0,0,0,0,0,23,15,0,0,0,15,0,12,0,0,0,13,0,0,14,22,11,22,0,24,0,0,0,0,0,0,0,0,0,0,0,0,0,0],"split_type":[0,0,0,0,0,0,0,0,0,0,0,0,0,0,0,0,0,0,0,0,0,0,0,0,0,0,0,0,0,0,0,0,0,0,0,0,0,0,0,0,0,0,0,0,0,0,0,0,0,0,0,0,0,0,0,0,0,0,0,0,0,0,0,0,0,0,0,0,0,0,0,0,0,0,0,0,0,0,0],"sum_hessian":[5.50875E2,2.83875E2,2.67E2,1.78875E2,1.05E2,1.9875E2,6.825E1,1.06125E2,7.275E1,4.3875E1,6.1125E1,1.73625E2,2.5125E1,6.15E1,6.75E0,9.525E1,1.0875E1,6.15E1,1.125E1,3.075E1,1.3125E1,4.8375E1,1.275E1,1.725E1,1.56375E2,1.9875E1,5.25E0,7.875E0,5.3625E1,5.625E0,5.25E0,5.625E1,5.25E0,5.625E0,5.625E0,1.4625E1,1.6125E1,7.5E0,5.625E0,4.275E1,5.625E0,7.125E0,5.625E0,6E0,1.125E1,6.7125E1,8.925E1,5.25E0,1.4625E1,5.25E0,4.8375E1,4.0875E1,1.5375E1,6E0,8.625E0,5.25E0,1.0875E1,3.7125E1,5.625E0,1.5375E1,5.175E1,1.7625E1,7.1625E1,9E0,3.9375E1,1.0125E1,5.25E0,5.25E0,5.625E0,5.25E0,1.0125E1,1.0875E1,4.0875E1,5.25E0,1.2375E1,1.125E1,6.0375E1,2.85E1,1.0875E1],"tree_param":{"num_deleted":"0","num_feature":"26","num_nodes":"79","size_leaf_vector":"1"}},{"base_weights":[2.1396193E-1,-2.5E-1,3.3144155E-1,-4.301887E-1,1.0695187E-2,7.29927E-2,4.2673922E-1,-2.1538462E-1,-1.8561152E-1,6.1538464E-1,-2.1582733E-1,2.3121387E-1,-3.272727E-1,6.435734E-1,2.6415095E-1,1.6800001E-1,-3.853211E-1,2.4E-2,2.9032257E-1,7.29927E-2,-4.6979865E-1,2.690583E-2,5.826772E-1,-5.433526E-1,3.6363635E-2,2.0930232E-1,8.331143E-1,9.0076333E-1,2.0132256E-1,-5.263158E-1,-1.6216217E-2,-9E-2,1.5692309E-1,-1.8202247E-1,-7.058824E-2,-4.477612E-1,2.25E-1,-1.3953489E-2,8.636364E-1,-7.9245284E-2,-1.875E-1,1.3548388E-1,-1.2857144E-1,3.283019E-1,4.682274E-2,1.0417423E0,2.7522936E-1,4.56E-1,1.4157304E-1,1.5289575E-1,3.0810812E-1,-7.2000004E-2,-1.8545455E-1,-2.4E-2,-1.826087E-1,6.569343E-1,-9.424084E-2,1.2131147E0,1.9354839E-2,-2.1935484E-1,3.1578946E-1,1.253886E0,5.202312E-1,-5.9880238E-2,3.5593224E-1,3.834197E-1,5.452563E-2,-0E0,3.033708E-1,3.4285717E-2,-1.7288136E-1,2.1600002E-1,4.2000002E-1,-1.7419355E-1,5.9405942E-3,2.6769233E-1,-3.157895E-2,4.1373137E-1,1.1186441E-1,2.369748E-1,-1.9354839E-2,-1.0344828E-1,1.5254238E-1,1.6216215E-1,-3.6734696E-2,8.3924845E-2,-5.6502245E-2],"categories":[],"categories_nodes":[],"categories_segments":[],"categories_sizes":[],"default_left":[0,0,0,0,0,0,0,0,0,0,0,0,0,0,0,0,0,0,0,0,0,0,0,0,0,0,0,0,0,0,0,0,0,0,0,0,0,0,0,0,0,0,0,0,0,0,0,0,0,0,0,0,0,0,0,0,0,0,0,0,0,0,0,0,0,0,0,0,0,0,0,0,0,0,0,0,0,0,0,0,0,0,0,0,0,0,0],"id":3,"left_children":[1,3,5,7,9,11,13,15,-1,17,19,21,23,25,27,-1,29,-1,-1,31,33,35,37,39,41,43,45,47,49,51,-1,-1,-1,-1,-1,53,55,-1,57,-1,-1,-1,-1,-1,59,61,63,-1,-1,65,-1,-1,-1,-1,-1,67,69,71,-1,73,75,77,79,81,-1,83,85,-1,-1,-1,-1,-1,-1,-1,-1,-1,-1,-1,-1,-1,-1,-1,-1,-1,-1,-1,-1],"loss_changes":[3.0142958E1,5.265724E0,1.081818E1,2.5494738E0,6.5364347E0,7.66741E0,1.1168789E1,4.4981794E0,0E0,2.3749876E0,2.5832741E0,6.1956086E0,2.7207568E0,1.1112679E1,7.23816E0,0E0,1.2443132E0,0E0,0E0,3.031836E0,4.5535564E-1,5.3428507E0,5.6528187E0,3.2787085E-1,2.8481777E0,6.1321816E0,1.078492E1,3.6312685E0,6.6456294E0,3.5138798E-1,0E0,0E0,0E0,0E0,0E0,9.4266057E-1,5.577553E0,0E0,6.065792E0,0E0,0E0,0E0,0E0,0E0,2.7450552E0,6.967697E0,8.391986E0,0E0,0E0,3.6498792E0,0E0,0E0,0E0,0E0,0E0,3.9858937E0,2.465682E0,3.97377E-1,0E0,1.6855955E0,4.706073E0,4.8085938E0,3.4611692E0,3.5560672E0,0E0,3.9012208E0,6.3225975E0,0E0,0E0,0E0,0E0,0E0,0E0,0E0,0E0,0E0,0E0,0E0,0E0,0E0,0E0,0E0,0E0,0E0,0E0,0E0,0E0],"parents":[2147483647,0,0,1,1,2,2,3,3,4,4,5,5,6,6,7,7,9,9,10,10,11,11,12,12,13,13,14,14,16,16,19,19,20,20,21,21,22,22,23,23,24,24,25,25,26,26,27,27,28,28,29,29,35,35,36,36,38,38,44,44,45,45,46,46,49,49,55,55,56,56,57,57,59,59,60,60,61,61,62,62,63,63,65,65,66,66],"right_children":[2,4,6,8,10,12,14,16,-1,18,20,22,24,26,28,-1,30,-1,-1,32,34,36,38,40,42,44,46,48,50,52,-1,-1,-1,-1,-1,54,56,-1,58,-1,-1,-1,-1,-1,60,62,64,-1,-1,66,-1,-1,-1,-1,-1,68,70,72,-1,74,76,78,80,82,-1,84,86,-1,-1,-1,-1,-1,-1,-1,-1,-1,-1,-1,-1,-1,-1,-1,-1,-1,-1,-1,-1],"split_conditions":[9.950883E-3,2.774893E0,3.0342772E0,3.5097492E-1,1.6667778E-2,1.5903308E0,5.156841E-2,4.439825E0,-1.8561152E-1,1.4160794E-1,2.79544E0,3.754577E-1,7.1644746E-2,9.6187286E-2,1E0,1.6800001E-1,6.1132073E-1,2.4E-2,2.9032257E-1,4.131881E0,6E0,2.7267292E1,7.8699887E-1,1E0,2.4321E0,-3.6520076E-1,4.592167E-1,4.280262E0,5.521766E-1,6.6196947E0,-1.6216217E-2,-9E-2,1.5692309E-1,-1.8202247E-1,-7.058824E-2,1.0555516E0,7.673025E-1,-1.3953489E-2,1.8159038E0,-7.9245284E-2,-1.875E-1,1.3548388E-1,-1.2857144E-1,3.283019E-1,8.744173E0,8.923871E-1,5.3508477E0,4.56E-1,1.4157304E-1,3.1044214E0,3.0810812E-1,-7.2000004E-2,-1.8545455E-1,-2.4E-2,-1.826087E-1,7.270483E-1,3.6656997E0,1.1539208E0,1.9354839E-2,2.9594857E-1,1.0184822E1,8.897159E1,4.7890884E1,3.846375E-2,3.5593224E-1,1E1,9.151667E0,-0E0,3.033708E-1,3.4285717E-2,-1.7288136E-1,2.1600002E-1,4.2000002E-1,-1.7419355E-1,5.9405942E-3,2.6769233E-1,-3.157895E-2,4.1373137E-1,1.1186441E-1,2.369748E-1,-1.9354839E-2,-1.0344828E-1,1.5254238E-1,1.6216215E-1,-3.6734696E-2,8.3924845E-2,-5.6502245E-2],"split_indices":[9,23,23,7,17,2,9,25,0,3,20,3,9,3,0,0,17,0,0,25,0,4,18,0,2,17,3,19,16,22,0,0,0,0,0,1,2,0,18,0,0,0,0,0,22,7,18,0,0,18,0,0,0,0,0,19,20,2,0,12,22,4,4,9,0,0,22,0,0,0,0,0,0,0,0,0,0,0,0,0,0,0,0,0,0,0,0],"split_type":[0,0,0,0,0,0,0,0,0,0,0,0,0,0,0,0,0,0,0,0,0,0,0,0,0,0,0,0,0,0,0,0,0,0,0,0,0,0,0,0,0,0,0,0,0,0,0,0,0,0,0,0,0,0,0,0,0,0,0,0,0,0,0,0,0,0,0,0,0,0,0,0,0,0,0,0,0,0,0,0,0,0,0,0,0,0,0],"sum_hessian":[5.505E2,1.11E2,4.395E2,6.525E1,4.575E1,1.18875E2,3.20625E2,3.15E1,3.375E1,1.2E1,3.375E1,8.55E1,3.3375E1,1.36125E2,1.845E2,5.25E0,2.625E1,5.25E0,6.75E0,1.6125E1,1.7625E1,5.475E1,3.075E1,2.0625E1,1.275E1,4.2E1,9.4125E1,1.5375E1,1.69125E2,1.8E1,8.25E0,9E0,7.125E0,1.0125E1,7.5E0,1.575E1,3.9E1,9.75E0,2.1E1,5.625E0,1.5E1,6.75E0,6E0,5.625E0,3.6375E1,6.7875E1,2.625E1,5.25E0,1.0125E1,1.60875E2,8.25E0,5.25E0,1.275E1,5.25E0,1.05E1,1.6125E1,2.2875E1,1.425E1,6.75E0,1.8375E1,1.8E1,4.725E1,2.0625E1,1.9875E1,6.375E0,4.725E1,1.13625E2,6E0,1.0125E1,1.65E1,6.375E0,5.25E0,9E0,6.75E0,1.1625E1,7.125E0,1.0875E1,4.0875E1,6.375E0,1.3875E1,6.75E0,1.35E1,6.375E0,3.6E1,1.125E1,5.8875E1,5.475E1],"tree_param":{"num_deleted":"0","num_feature":"26","num_nodes":"87","size_leaf_vector":"1"}},{"base_weights":[3.0065033E-1,6.790973E-1,8.298488E-2,9.1777146E-1,4.241849E-1,5.7067007E-1,-1.81104E-2,8.032288E-2,9.7133785E-1,8.438066E-1,1.8341504E-1,1.0714353E0,3.818772E-1,4.1516703E-1,-8.458322E-2,6.629784E-1,1.0916731E0,1.033936E0,2.3052173E-2,-2.4818668E-2,5.847741E-1,1.7618443E-1,3.901439E-1,4.4394E-2,9.125405E-1,1.9384944E-1,3.337587E-1,-1.4474487E-1,5.4952186E-1,3.0740902E-1,2.9154265E-1,1.6457772E-1,1.1322365E0,3.7570766E-1,6.671765E-1,-3.884872E-1,2.3417312E-1,8.2868516E-1,4.9292903E-2,-2.4096362E-1,3.7376776E-1,8.630435E-2,3.9209932E-1,-2.9254025E-1,4.6316427E-1,-2.110445E-1,5.25551E-1,3.4368736E-1,-2.4264827E-2,2.0941058E-1,-4.6267636E-2,8.501687E-1,3.5763052E-1,3.4623104E-1,6.640422E-2,-1.606185E-1,-3.617968E-2,2.9067153E-1,-4.4882763E-2,3.1783283E-1,1.500251E-1,-1.5840647E-1,4.7972556E-2,2.042332E-1,9.886772E-3,1.9175531E-2,-1.7232786E-1,-1.2485827E-1,8.046713E-1,1.7266001E-1,-2.3517686E-1,-5.520265E-2,9.553878E-1,-1.3714674E-1,1.5827452E-1,3.4046125E-1,1.12920344E-1,-1.2377044E-1,7.367882E-2,6.302435E-2,3.247021E-1,2.2280145E-2,-9.390538E-2,1.5193485E-1,3.482208E-1],"categories":[],"categories_nodes":[],"categories_segments":[],"categories_sizes":[],"default_left":[0,0,0,0,0,0,0,0,0,0,0,0,0,0,0,0,0,0,0,0,0,0,0,0,0,0,0,0,0,0,0,0,0,0,0,0,0,0,0,0,0,0,0,0,0,0,0,0,0,0,0,0,0,0,0,0,0,0,0,0,0,0,0,0,0,0,0,0,0,0,0,0,0,0,0,0,0,0,0,0,0,0,0,0,0],"id":4,"left_children":[1,3,5,7,9,11,13,-1,15,17,19,21,23,25,27,29,31,33,-1,35,37,-1,-1,39,41,43,-1,45,47,49,-1,-1,51,-1,53,55,57,59,-1,61,63,-1,-1,65,67,69,71,-1,73,-1,-1,75,-1,-1,-1,-1,-1,-1,77,-1,-1,-1,-1,-1,-1,-1,-1,-1,79,-1,81,-1,83,-1,-1,-1,-1,-1,-1,-1,-1,-1,-1,-1,-1],"loss_changes":[4.7835857E1,1.2518242E1,1.8264252E1,3.5250473E0,1.0397606E1,5.6038666E0,8.895497E0,0E0,2.988739E0,5.4329033E0,5.667951E0,1.1058769E0,8.509703E0,6.1259565E0,1.0286274E1,3.0648232E0,9.3013E-1,1.5846977E0,0E0,4.3761473E0,2.237753E0,0E0,0E0,2.9317625E0,4.185932E0,4.3798103E0,0E0,1.1005804E1,8.029064E0,2.938888E0,0E0,0E0,7.709503E-2,0E0,2.6571722E0,6.949818E-1,5.6195884E0,5.622616E-1,0E0,2.0185413E0,1.4870651E0,0E0,0E0,1.2585562E0,6.7138433E0,4.383609E0,6.9932575E0,0E0,3.3225985E0,0E0,0E0,1.5682621E0,0E0,0E0,0E0,0E0,0E0,0E0,2.308552E0,0E0,0E0,0E0,0E0,0E0,0E0,0E0,0E0,0E0,2.3548632E0,0E0,5.2707634E0,0E0,7.1031475E-1,0E0,0E0,0E0,0E0,0E0,0E0,0E0,0E0,0E0,0E0,0E0,0E0],"parents":[2147483647,0,0,1,1,2,2,3,3,4,4,5,5,6,6,8,8,9,9,10,10,11,11,12,12,13,13,14,14,15,15,16,16,17,17,19,19,20,20,23,23,24,24,25,25,27,27,28,28,29,29,32,32,34,34,35,35,36,36,37,37,39,39,40,40,43,43,44,44,45,45,46,46,48,48,51,51,58,58,68,68,70,70,72,72],"right_children":[2,4,6,8,10,12,14,-1,16,18,20,22,24,26,28,30,32,34,-1,36,38,-1,-1,40,42,44,-1,46,48,50,-1,-1,52,-1,54,56,58,60,-1,62,64,-1,-1,66,68,70,72,-1,74,-1,-1,76,-1,-1,-1,-1,-1,-1,78,-1,-1,-1,-1,-1,-1,-1,-1,-1,80,-1,82,-1,84,-1,-1,-1,-1,-1,-1,-1,-1,-1,-1,-1,-1],"split_conditions":[3.013113E0,7.958407E-2,4.0386803E-2,7.800778E-1,1.7160519E0,9.696665E-2,1.6255084E-1,8.032288E-2,-6.787399E-2,1.509497E0,9.6533346E-1,6.146872E0,3.610516E-1,1.4497042E-1,1.0736185E0,1.0473648E0,1.0503452E0,7.825409E-1,2.3052173E-2,1.2658019E0,7.7972107E0,1.7618443E-1,3.901439E-1,7E0,-2.2445592E-1,1.3647261E0,3.337587E-1,4.6642298E-1,1.7195494E-1,1.6618503E0,2.9154265E-1,1.6457772E-1,7.5348186E-1,3.7570766E-1,2.1404807E-1,2.1088114E0,1.9639853E0,1.3307714E-1,4.9292903E-2,4.158612E-1,1.1856182E-2,8.630435E-2,3.9209932E-1,1.0925882E0,1.250068E0,5.4465485E-1,2.6687117E0,3.4368736E-1,1.4353331E0,2.0941058E-1,-4.6267636E-2,5.9859157E-1,3.5763052E-1,3.4623104E-1,6.640422E-2,-1.606185E-1,-3.617968E-2,2.9067153E-1,1.2349017E0,3.1783283E-1,1.500251E-1,-1.5840647E-1,4.7972556E-2,2.042332E-1,9.886772E-3,1.9175531E-2,-1.7232786E-1,-1.2485827E-1,6.599854E-2,1.7266001E-1,4.1016526E0,-5.520265E-2,3.8671967E-2,-1.3714674E-1,1.5827452E-1,3.4046125E-1,1.12920344E-1,-1.2377044E-1,7.367882E-2,6.302435E-2,3.247021E-1,2.2280145E-2,-9.390538E-2,1.5193485E-1,3.482208E-1],"split_indices":[23,11,11,1,19,24,7,0,6,18,12,19,24,7,3,23,1,19,0,2,22,0,0,0,6,1,0,24,8,19,0,0,14,0,18,14,1,11,0,3,6,0,0,1,14,1,18,0,14,0,0,17,0,0,0,0,0,0,3,0,0,0,0,0,0,0,0,0,7,0,23,0,3,0,0,0,0,0,0,0,0,0,0,0,0],"split_type":[0,0,0,0,0,0,0,0,0,0,0,0,0,0,0,0,0,0,0,0,0,0,0,0,0,0,0,0,0,0,0,0,0,0,0,0,0,0,0,0,0,0,0,0,0,0,0,0,0,0,0,0,0,0,0,0,0,0,0,0,0,0,0,0,0,0,0,0,0,0,0,0,0,0,0,0,0,0,0,0,0,0,0,0,0],"sum_hessian":[5.803938E2,2.1115187E2,3.692419E2,1.0770627E2,1.03445595E2,6.2602345E1,3.066396E2,8.656609E0,9.904966E1,3.680172E1,6.664388E1,1.5859771E1,4.6742573E1,4.008903E1,2.6655054E2,2.96306E1,6.941906E1,2.9212027E1,7.589692E0,4.449637E1,2.214751E1,6.237978E0,9.621793E0,2.9234266E1,1.7508308E1,3.1401348E1,8.687683E0,2.4415747E2,2.2393066E1,1.4700592E1,1.4930008E1,5.8340764E0,6.3584984E1,1.6795094E1,1.2416933E1,1.8300024E1,2.6196346E1,1.3402088E1,8.745422E0,1.5807571E1,1.3426695E1,7.444611E0,1.0063697E1,1.1159948E1,2.0241402E1,2.2280478E2,2.1352694E1,1.049416E1,1.1898907E1,7.6853237E0,7.015269E0,1.3793826E1,4.9791157E1,5.175583E0,7.24135E0,1.1173817E1,7.126208E0,6.5303555E0,1.966599E1,6.566632E0,6.8354564E0,9.026595E0,6.780977E0,6.538857E0,6.8878374E0,5.2695665E0,5.8903813E0,5.6008577E0,1.4640543E1,5.9520698E0,2.168527E2,8.271045E0,1.3081649E1,6.7643013E0,5.1346054E0,7.744496E0,6.0493307E0,8.494027E0,1.1171964E1,5.219752E0,9.420792E0,4.359481E1,1.732579E2,5.1935816E0,7.8880677E0],"tree_param":{"num_deleted":"0","num_feature":"26","num_nodes":"85","size_leaf_vector":"1"}},{"base_weights":[-5.110128E-1,-8.272815E-2,-5.6786966E-1,-2.883809E-1,3.255542E-1,1.699583E-2,-5.765086E-1,-3.96845E-1,-1.5323047E-2,-7.176494E-2,6.9540054E-1,-5.828468E-1,-2.1911629E-2,-1.0164155E-2,-5.09316E-1,1.16113134E-1,-1.2002298E-1,3.0320787E-1,8.9687735E-2,-5.8940923E-1,-4.2794753E-2,-5.8926985E-2,-1.7850849E-1,-5.937315E-1,-6.868082E-2,-6.001261E-1,-3.9090982E-1,-1.4636041E-1,-1.8322557E-1,-1.698803E-1,-9.845724E-3],"categories":[],"categories_nodes":[],"categories_segments":[],"categories_sizes":[],"default_left":[0,0,0,0,0,0,0,0,0,0,0,0,0,0,0,0,0,0,0,0,0,0,0,0,0,0,0,0,0,0,0],"id":5,"left_children":[1,3,5,7,9,-1,11,13,15,-1,17,19,-1,-1,21,-1,-1,-1,-1,23,-1,-1,-1,25,-1,27,29,-1,-1,-1,-1],"loss_changes":[1.1598694E1,4.898237E0,2.3095703E0,1.136611E0,4.268018E0,0E0,1.2860718E0,1.1083755E0,2.0139632E0,0E0,1.2130308E0,1.103302E0,0E0,0E0,4.457612E-1,0E0,0E0,0E0,0E0,4.9458313E-1,0E0,0E0,0E0,2.8323364E-1,0E0,1.6149902E-1,9.27814E-1,0E0,0E0,0E0,0E0],"parents":[2147483647,0,0,1,1,2,2,3,3,4,4,6,6,7,7,8,8,10,10,11,11,14,14,19,19,23,23,25,25,26,26],"right_children":[2,4,6,8,10,-1,12,14,16,-1,18,20,-1,-1,22,-1,-1,-1,-1,24,-1,-1,-1,26,-1,28,30,-1,-1,-1,-1],"split_conditions":[-2.5246456E-2,8.194307E-1,3.259848E-1,8.8270056E-1,2.4407357E-1,1.699583E-2,1.3560145E0,1.5944712E-1,6.711409E-2,-7.176494E-2,1.6310636E0,2.0364239E1,-2.1911629E-2,-1.0164155E-2,-6.820189E-1,1.16113134E-1,-1.2002298E-1,3.0320787E-1,8.9687735E-2,7.6668406E-1,-4.2794753E-2,-5.8926985E-2,-1.7850849E-1,2.7096076E0,-6.868082E-2,1.7256135E-2,2.5431866E1,-1.4636041E-1,-1.8322557E-1,-1.698803E-1,-9.845724E-3],"split_indices":[21,15,22,17,3,0,15,3,16,0,1,14,0,0,18,0,0,0,0,5,0,0,0,12,0,21,4,0,0,0,0],"split_type":[0,0,0,0,0,0,0,0,0,0,0,0,0,0,0,0,0,0,0,0,0,0,0,0,0,0,0,0,0,0,0],"sum_hessian":[4.772433E2,5.6218956E1,4.2102432E2,3.7582325E1,1.8636631E1,5.668694E0,4.1535565E2,2.6573467E1,1.1008858E1,7.51465E0,1.1121981E1,4.1003598E2,5.3196545E0,6.594158E0,1.997931E1,5.378348E0,5.6305103E0,5.3319964E0,5.7899837E0,4.0367905E2,6.3569317E0,5.0039687E0,1.4975341E1,3.982566E2,5.4224553E0,3.8418512E2,1.4071474E1,3.7277157E1,3.4690796E2,9.055582E0,5.015892E0],"tree_param":{"num_deleted":"0","num_feature":"26","num_nodes":"31","size_leaf_vector":"1"}},{"base_weights":[-3.4639843E-2,-4.1057664E-1,2.0019491E-1,-5.0927746E-1,8.145345E-2,-2.1783966E-1,2.9447198E-1,-5.635253E-1,-2.676045E-1,5.630929E-1,-1.5110719E-1,-1.7186615E-1,-5.3726893E-2,3.5640228E-1,-4.2803544E-1,-5.994301E-1,-3.8691768E-1,-5.228515E-1,2.5326884E-1,2.654103E-1,5.647557E-2,4.2232573E-2,-1.7433006E-1,3.1109628E-1,-3.007912E-1,1.6323045E-1,5.419843E-1,-1.8178325E-2,-1.6208602E-1,-6.155073E-1,-9.331695E-2,7.013322E-2,-1.6659619E-1,-1.7905028E-1,-7.0198774E-2,1.8301702E-1,-3.250665E-2,-2.6866487E-1,1.7024043E-1,6.924383E-1,-1.24512E-1,8.3186924E-2,-4.5185712E-1,7.3826593E-1,4.3326017E-2,7.331735E-1,2.031765E-1,-1.8741307E-1,-1.128156E-1,2.122099E-2,-1.6292645E-1,7.311507E-2,2.9806668E-1,-1.8697199E-1,-5.238666E-2,-7.283201E-2,1.059414E0,-3.359969E-1,1.6677485E-1,1.4458261E-1,8.930528E-1,4.0264985E-1,-3.3363613E-1,4.0074193E-1,1.5516156E-1,2.671711E-2,-1.7111662E-1,-3.7709256E-3,1.7842427E-1,-3.580821E-2,2.0876892E-1,8.52434E-2,2.8551084E-1,1.8509383E-1,-4.6290945E-2,-1.7866564E-1,-5.8678375E-3],"categories":[],"categories_nodes":[],"categories_segments":[],"categories_sizes":[],"default_left":[0,0,0,0,0,0,0,0,0,0,0,0,0,0,0,0,0,0,0,0,0,0,0,0,0,0,0,0,0,0,0,0,0,0,0,0,0,0,0,0,0,0,0,0,0,0,0,0,0,0,0,0,0,0,0,0,0,0,0,0,0,0,0,0,0,0,0,0,0,0,0,0,0,0,0,0,0],"id":6,"left_children":[1,3,5,7,9,11,13,15,17,19,21,-1,23,25,27,29,31,33,35,-1,-1,37,-1,39,41,43,45,-1,-1,47,-1,-1,-1,-1,-1,-1,-1,49,-1,51,-1,-1,53,55,57,59,61,-1,-1,-1,-1,-1,-1,-1,-1,-1,63,65,67,69,71,73,75,-1,-1,-1,-1,-1,-1,-1,-1,-1,-1,-1,-1,-1,-1],"loss_changes":[4.7369606E1,1.0058884E1,1.3084038E1,2.1034584E0,4.04205E0,3.5450482E0,1.2233389E1,6.5278244E-1,4.5763645E0,1.2456961E0,2.0706484E0,0E0,3.9759407E0,8.845966E0,8.651757E-1,3.3766556E-1,2.8886282E0,3.4670782E-1,1.5713446E0,0E0,0E0,3.077106E0,0E0,5.239386E0,2.4123888E0,8.486366E0,8.056736E0,0E0,0E0,1.045227E-3,0E0,0E0,0E0,0E0,0E0,0E0,0E0,1.1495183E0,0E0,1.3928108E0,0E0,0E0,8.957844E-1,6.953474E0,4.892845E0,7.4553337E0,5.175707E0,0E0,0E0,0E0,0E0,0E0,0E0,0E0,0E0,0E0,1.7367E0,2.610615E0,6.040206E0,2.7619057E0,1.9861526E0,4.246781E0,1.0825821E0,0E0,0E0,0E0,0E0,0E0,0E0,0E0,0E0,0E0,0E0,0E0,0E0,0E0,0E0],"parents":[2147483647,0,0,1,1,2,2,3,3,4,4,5,5,6,6,7,7,8,8,9,9,10,10,12,12,13,13,14,14,15,15,16,16,17,17,18,18,21,21,23,23,24,24,25,25,26,26,29,29,37,37,39,39,42,42,43,43,44,44,45,45,46,46,56,56,57,57,58,58,59,59,60,60,61,61,62,62],"right_children":[2,4,6,8,10,12,14,16,18,20,22,-1,24,26,28,30,32,34,36,-1,-1,38,-1,40,42,44,46,-1,-1,48,-1,-1,-1,-1,-1,-1,-1,50,-1,52,-1,-1,54,56,58,60,62,-1,-1,-1,-1,-1,-1,-1,-1,-1,64,66,68,70,72,74,76,-1,-1,-1,-1,-1,-1,-1,-1,-1,-1,-1,-1,-1,-1],"split_conditions":[6.251694E-2,5.386762E-2,2.81092E0,7.0015774E0,1.3806208E0,1.086826E-1,5.390731E-1,3.207362E-2,1.0011123E1,1.7075524E-1,6.7226987E0,-1.7186615E-1,1.6581159E0,6.66491E-2,3.565841E-2,1.0436981E2,1.7219633E1,3.909517E-2,8.66754E0,2.654103E-1,5.647557E-2,5.2723427E0,-1.7433006E-1,3.017512E-1,9.67188E-2,3.313146E-2,1.9279137E0,-1.8178325E-2,-1.6208602E-1,3.9447484E0,-9.331695E-2,7.013322E-2,-1.6659619E-1,-1.7905028E-1,-7.0198774E-2,1.8301702E-1,-3.250665E-2,1.5009608E0,1.7024043E-1,1.680507E0,-1.24512E-1,8.3186924E-2,1.7195494E-1,2.3353988E-1,2.2335269E-1,2.1633389E1,2.4202209E0,-1.8741307E-1,-1.128156E-1,2.122099E-2,-1.6292645E-1,7.311507E-2,2.9806668E-1,-1.8697199E-1,-5.238666E-2,-7.283201E-2,2.2573777E-2,1.1689658E-1,6.6788173E0,1.2971945E-1,9.318776E-2,3.2398316E-1,6.6788173E0,4.0074193E-1,1.5516156E-1,2.671711E-2,-1.7111662E-1,-3.7709256E-3,1.7842427E-1,-3.580821E-2,2.0876892E-1,8.52434E-2,2.8551084E-1,1.8509383E-1,-4.6290945E-2,-1.7866564E-1,-5.8678375E-3],"split_indices":[6,9,23,23,1,11,24,9,22,11,23,0,1,9,9,4,4,9,23,0,0,19,0,16,8,3,1,0,0,1,0,0,0,0,0,0,0,14,0,23,0,0,8,19,16,4,20,0,0,0,0,0,0,0,0,0,3,8,19,9,6,16,19,0,0,0,0,0,0,0,0,0,0,0,0,0,0],"split_type":[0,0,0,0,0,0,0,0,0,0,0,0,0,0,0,0,0,0,0,0,0,0,0,0,0,0,0,0,0,0,0,0,0,0,0,0,0,0,0,0,0,0,0,0,0,0,0,0,0,0,0,0,0,0,0,0,0,0,0,0,0,0,0,0,0,0,0,0,0,0,0,0,0,0,0,0,0],"sum_hessian":[5.346343E2,2.052731E2,3.2936118E2,1.7094635E2,3.4326748E1,6.0368824E1,2.6899237E2,1.3852103E2,3.2425327E1,1.071481E1,2.3611937E1,1.8295933E1,4.207289E1,2.4822249E2,2.0769873E1,1.1312775E2,2.5393278E1,2.1758883E1,1.0666446E1,5.034812E0,5.679999E0,1.6910275E1,6.701663E0,1.6883297E1,2.5189596E1,1.2254514E2,1.2567735E2,5.220618E0,1.5549255E1,1.0607928E2,7.0484705E0,5.3363814E0,2.0056896E1,1.6473442E1,5.28544E0,5.0233197E0,5.643126E0,1.0929419E1,5.980855E0,1.1100238E1,5.7830586E0,5.045713E0,2.0143883E1,2.0254045E1,1.022911E2,7.959688E1,4.6080475E1,1.0060392E2,5.4753566E0,5.2180586E0,5.71136E0,5.184192E0,5.9160457E0,1.1677163E1,8.46672E0,5.0552807E0,1.5198765E1,2.4693449E1,7.759765E1,1.7409323E1,6.2187553E1,3.3778645E1,1.2301828E1,9.097601E0,6.1011634E0,8.997372E0,1.5696078E1,5.5366573E1,2.2231073E1,1.2302809E1,5.106513E0,5.977139E0,5.6210415E1,2.4314165E1,9.464481E0,6.2192497E0,6.0825787E0],"tree_param":{"num_deleted":"0","num_feature":"26","num_nodes":"77","size_leaf_vector":"1"}},{"base_weights":[1.679748E-1,-2.3563139E-1,2.571545E-1,-7.734072E-2,-5.5812603E-1,3.5495123E-1,7.777611E-2,-4.1666895E-1,1.0274857E-1,-1.8330806E-1,-9.919861E-2,6.420613E-1,2.4859372E-1,-1.7172544E-1,2.6629758E-1,-5.08815E-1,-1.5829906E-2,5.828671E-1,-1.4981672E-1,-3.7810158E-3,7.0874584E-1,3.3916584E-1,-8.167555E-2,-3.3696097E-1,8.365416E-2,5.991374E-1,2.8871778E-2,-6.945313E-2,-1.7909221E-1,-7.46744E-2,9.870441E-1,-2.7097192E-1,9.797481E-2,1.0813833E0,5.578482E-1,3.8260838E-1,-1.2128973E-1,-3.093281E-1,6.497086E-1,-4.3387794E-1,4.47624E-2,-2.2299574E-1,4.484792E-1,3.3836216E-1,3.9881778E-1,4.1515246E-1,-2.0380189E-1,3.7028372E-1,1.7397687E-1,-9.785727E-2,-1.5034172E-1,4.2040253E-1,8.046488E-1,-7.800994E-2,6.570506E-1,3.3573797E-1,8.253579E-1,8.965652E-2,-4.542247E-1,3.3846116E-1,1.9663185E-2,-2.0891087E-1,-5.5411637E-1,6.854465E-2,-1.5798001E-1,2.5389057E-1,-3.9670117E-2,-7.382139E-2,5.417317E-1,8.1137545E-2,2.7461168E-1,-4.3200356E-1,2.1839619E-1,2.3099482E-2,-1.1381144E-1,1.2794258E-1,3.3891547E-1,2.3122257E-2,2.2995459E-1,1.4616773E-1,4.6710197E-2,3.4701648E-1,6.104676E-2,-3.1097597E-2,-1.57603E-1,2.8349062E-2,-1.3999042E-1,-1.9048408E-1,-6.725845E-2,4.6436116E-2,2.2829036E-1,1.4274846E-1,-9.610539E-2,-1.6997105E-1,-4.9763385E-2,1.574436E-1,-3.971062E-2],"categories":[],"categories_nodes":[],"categories_segments":[],"categories_sizes":[],"default_left":[0,0,0,0,0,0,0,0,0,0,0,0,0,0,0,0,0,0,0,0,0,0,0,0,0,0,0,0,0,0,0,0,0,0,0,0,0,0,0,0,0,0,0,0,0,0,0,0,0,0,0,0,0,0,0,0,0,0,0,0,0,0,0,0,0,0,0,0,0,0,0,0,0,0,0,0,0,0,0,0,0,0,0,0,0,0,0,0,0,0,0,0,0,0,0,0,0],"id":7,"left_children":[1,3,5,7,9,11,13,15,17,-1,-1,19,21,23,25,27,-1,29,31,-1,33,35,37,39,41,43,45,-1,-1,-1,47,49,-1,51,53,55,-1,57,59,61,-1,63,65,-1,67,69,71,-1,-1,73,-1,-1,75,-1,77,79,81,-1,83,-1,-1,85,87,-1,-1,-1,-1,-1,89,91,-1,93,95,-1,-1,-1,-1,-1,-1,-1,-1,-1,-1,-1,-1,-1,-1,-1,-1,-1,-1,-1,-1,-1,-1,-1,-1],"loss_changes":[2.0245258E1,5.164111E0,8.038122E0,4.2950583E0,2.0014286E-1,8.918007E0,7.736471E0,7.887759E-1,5.6969385E0,0E0,0E0,3.4893417E0,6.5652113E0,3.0233724E0,7.373615E0,3.334546E-1,0E0,5.675472E0,1.8840806E0,0E0,3.4661865E0,5.700512E0,8.166639E0,2.1046991E0,3.309096E0,3.6691027E0,5.0852127E0,0E0,0E0,0E0,3.985424E-1,9.609796E-1,0E0,6.250267E-1,4.5178833E0,3.1000996E0,0E0,3.41064E0,3.190555E0,8.676152E-1,0E0,2.3481238E0,3.2149732E0,0E0,2.875196E0,3.4752643E0,3.5043983E0,0E0,0E0,8.0252224E-1,0E0,0E0,1.1116982E0,0E0,2.9924335E0,3.9837627E0,2.8336058E0,0E0,7.0369434E-1,0E0,0E0,1.15977E0,4.733162E-1,0E0,0E0,0E0,0E0,0E0,1.9746561E0,2.344896E0,0E0,7.408271E-1,1.4755824E0,0E0,0E0,0E0,0E0,0E0,0E0,0E0,0E0,0E0,0E0,0E0,0E0,0E0,0E0,0E0,0E0,0E0,0E0,0E0,0E0,0E0,0E0,0E0,0E0],"parents":[2147483647,0,0,1,1,2,2,3,3,4,4,5,5,6,6,7,7,8,8,11,11,12,12,13,13,14,14,15,15,17,17,18,18,20,20,21,21,22,22,23,23,24,24,25,25,26,26,30,30,31,31,33,33,34,34,35,35,37,37,38,38,39,39,41,41,42,42,44,44,45,45,46,46,49,49,52,52,54,54,55,55,56,56,58,58,61,61,62,62,68,68,69,69,71,71,72,72],"right_children":[2,4,6,8,10,12,14,16,18,-1,-1,20,22,24,26,28,-1,30,32,-1,34,36,38,40,42,44,46,-1,-1,-1,48,50,-1,52,54,56,-1,58,60,62,-1,64,66,-1,68,70,72,-1,-1,74,-1,-1,76,-1,78,80,82,-1,84,-1,-1,86,88,-1,-1,-1,-1,-1,90,92,-1,94,96,-1,-1,-1,-1,-1,-1,-1,-1,-1,-1,-1,-1,-1,-1,-1,-1,-1,-1,-1,-1,-1,-1,-1,-1],"split_conditions":[7.664136E-3,7.7685815E-1,6.9684167E0,7.823005E-2,6.714936E1,3E0,8.290594E-2,6.277293E1,1.6667778E-2,-1.8330806E-1,-9.919861E-2,8.1648695E-1,8.482391E-1,5E0,8.2165605E-1,1.1854247E0,-1.5829906E-2,-4.6496558E-1,5.6025475E-1,-3.7810158E-3,1.2029833E0,8.677002E-1,1.5781412E0,5.8047157E1,6.881837E0,6.1456364E-1,1.2956981E-1,-6.945313E-2,-1.7909221E-1,-7.46744E-2,3.0029995E0,9.710402E-3,9.797481E-2,2.4397538E0,1.2939192E1,7.29622E-1,-1.2128973E-1,9.576975E-1,4.7493085E-2,5.4533905E-1,4.47624E-2,2.610132E-1,6.921993E-1,3.3836216E-1,1.9685039E-1,9.667667E-2,1.8229896E-1,3.7028372E-1,1.7397687E-1,6.6577446E1,-1.5034172E-1,4.2040253E-1,6.1628032E-2,-7.800994E-2,1.8139526E0,4.982699E-1,4.276038E1,8.965652E-2,1.4144317E0,3.3846116E-1,1.9663185E-2,7.268078E-1,8.636403E-2,6.854465E-2,-1.5798001E-1,2.5389057E-1,-3.9670117E-2,-7.382139E-2,1.0713477E-1,4.5944032E-1,2.7461168E-1,1.393108E-1,7E0,2.3099482E-2,-1.1381144E-1,1.2794258E-1,3.3891547E-1,2.3122257E-2,2.2995459E-1,1.4616773E-1,4.6710197E-2,3.4701648E-1,6.104676E-2,-3.1097597E-2,-1.57603E-1,2.8349062E-2,-1.3999042E-1,-1.9048408E-1,-6.725845E-2,4.6436116E-2,2.2829036E-1,1.4274846E-1,-9.610539E-2,-1.6997105E-1,-4.9763385E-2,1.574436E-1,-3.971062E-2],"split_indices":[9,15,13,24,4,0,24,4,17,0,0,14,12,0,17,14,0,17,12,0,14,15,12,4,19,12,11,0,0,0,20,21,0,19,4,12,0,1,8,17,0,16,15,0,16,11,10,0,0,4,0,0,9,0,19,17,4,0,19,0,0,15,21,0,0,0,0,0,24,12,0,10,0,0,0,0,0,0,0,0,0,0,0,0,0,0,0,0,0,0,0,0,0,0,0,0,0],"split_type":[0,0,0,0,0,0,0,0,0,0,0,0,0,0,0,0,0,0,0,0,0,0,0,0,0,0,0,0,0,0,0,0,0,0,0,0,0,0,0,0,0,0,0,0,0,0,0,0,0,0,0,0,0,0,0,0,0,0,0,0,0,0,0,0,0,0,0,0,0,0,0,0,0,0,0,0,0,0,0,0,0,0,0,0,0,0,0,0,0,0,0,0,0,0,0,0,0],"sum_hessian":[5.5978674E2,1.01007675E2,4.5877905E2,6.858418E1,3.242349E1,2.962729E2,1.6250618E2,2.3323622E1,4.5260563E1,2.4937557E1,7.4859324E0,7.872351E1,2.1754936E2,6.997965E1,9.252653E1,1.8293255E1,5.030368E0,1.51510725E1,3.010949E1,7.3525043E0,7.137101E1,1.7070795E2,4.6841415E1,4.229471E1,2.7684946E1,3.788843E1,5.4638092E1,5.287488E0,1.3005767E1,5.0802484E0,1.0070824E1,2.434852E1,5.7609706E0,1.8793827E1,5.257718E1,1.6174231E2,8.965642E0,3.616246E1,1.0678956E1,3.535442E1,6.9402866E0,1.5252975E1,1.2431971E1,9.13818E0,2.8750252E1,2.0244411E1,3.439368E1,5.001693E0,5.0691314E0,1.4709946E1,9.638575E0,6.8314795E0,1.1962348E1,5.5119863E0,4.7065193E1,1.47849E2,1.3893309E1,6.753413E0,2.9409046E1,5.358469E0,5.3204875E0,1.3267775E1,2.2086645E1,6.2324214E0,9.020555E0,7.1063504E0,5.3256197E0,5.08459E0,2.3665663E1,1.28357315E1,7.4086795E0,2.231111E1,1.2082571E1,9.522048E0,5.1878977E0,6.5982E0,5.3641486E0,7.743247E0,3.9321945E1,7.936398E1,6.8485016E1,8.502607E0,5.3907013E0,5.374412E0,2.4034634E1,6.384686E0,6.883089E0,1.6997686E1,5.08896E0,9.176126E0,1.4489537E1,6.3792944E0,6.4564366E0,1.4068438E1,8.242673E0,6.184136E0,5.898435E0],"tree_param":{"num_deleted":"0","num_feature":"26","num_nodes":"97","size_leaf_vector":"1"}},{"base_weights":[2.3870789E-1,5.4831237E-1,7.19008E-2,7.074894E-1,3.417646E-1,1.9728264E-1,-1.6935925E-1,2.2757435E-1,7.5826794E-1,4.8207885E-1,-7.822154E-2,4.4295222E-1,7.243374E-2,-2.375919E-1,2.3039073E-1,1.6636102E-1,-5.2811917E-2,4.652439E-1,8.4700036E-1,8.47973E-2,5.910384E-1,-2.7226198E-1,1.5983959E-1,1.6676709E-1,6.5972346E-1,6.686228E-1,1.8610701E-2,-3.5283214E-1,8.6471505E-2,3.091136E-1,1.929402E-1,1.1774928E-1,8.7569416E-1,-1.3845827E-1,2.2576925E-1,7.13116E-1,2.5621986E-1,-4.0357E-1,2.038275E-2,-1.3129777E-1,5.0665236E-1,9.341359E-1,3.7259343E-1,3.20216E-1,8.933307E-2,-2.7356252E-1,1.06685705E-1,9.999944E-2,-4.0120575E-1,2.3036005E-1,-1.6116828E-1,-7.2478294E-2,2.2858249E-1,7.5220937E-1,2.901053E-1,7.958261E-1,6.8918094E-2,2.634644E-1,-4.0169455E-2,-1.6963196E-1,-4.5908235E-2,-1.497675E-1,1.1087571E-1,7.330108E-1,-8.415797E-3,1.1422015E-1,3.329724E-1,6.839808E-2,2.571971E-1,1.8660732E-2,-3.991685E-1,3.1816986E-1,-1.3615458E-1,-4.9384904E-1,-1.8957591E-1,1.2558943E-1,-3.632398E-1,-1.08735695E-1,9.6042894E-2,2.4741466E-1,8.159055E-2,1.06990226E-1,2.6376644E-1,1.21844865E-1,-6.3215405E-2,1.1397428E-1,2.84114E-1,-8.185337E-2,1.7826527E-1,-1.2678865E-1,1.2229808E-1,-1.6696852E-1,-3.3965994E-2,1.4461818E-1,2.7910378E-2,-1.3653004E-1,3.0321037E-2,2.8156403E-3,-1.6527875E-1,-1.06816344E-1,9.402982E-2,8.375798E-3,-1.5827852E-1],"categories":[],"categories_nodes":[],"categories_segments":[],"categories_sizes":[],"default_left":[0,0,0,0,0,0,0,0,0,0,0,0,0,0,0,0,0,0,0,0,0,0,0,0,0,0,0,0,0,0,0,0,0,0,0,0,0,0,0,0,0,0,0,0,0,0,0,0,0,0,0,0,0,0,0,0,0,0,0,0,0,0,0,0,0,0,0,0,0,0,0,0,0,0,0,0,0,0,0,0,0,0,0,0,0,0,0,0,0,0,0,0,0,0,0,0,0,0,0,0,0,0,0],"id":8,"left_children":[1,3,5,7,9,11,13,15,17,19,21,23,25,27,-1,-1,-1,29,31,33,35,37,-1,39,41,43,45,47,49,-1,51,-1,53,-1,-1,55,57,59,-1,61,63,65,67,-1,-1,69,71,-1,73,-1,75,77,-1,79,-1,81,-1,-1,-1,-1,-1,-1,83,85,-1,-1,-1,87,-1,89,91,93,95,97,99,-1,101,-1,-1,-1,-1,-1,-1,-1,-1,-1,-1,-1,-1,-1,-1,-1,-1,-1,-1,-1,-1,-1,-1,-1,-1,-1,-1],"loss_changes":[3.013147E1,6.4783554E0,1.1552708E1,2.6177902E0,5.3942356E0,7.667818E0,8.545679E0,1.7319987E0,2.2870712E0,2.905261E0,2.945899E0,4.94265E0,5.3671675E0,4.611077E0,0E0,0E0,0E0,3.8309941E0,6.7261887E-1,6.1341E0,2.0003967E0,8.579211E-1,0E0,3.9618216E0,3.3508663E0,1.730761E0,4.012548E0,3.143484E0,5.688584E0,0E0,2.909874E0,0E0,9.0084076E-2,0E0,0E0,1.3596249E0,3.9591527E0,4.6332145E-1,0E0,1.9514055E0,2.219839E0,1.8478394E0,3.5693734E0,0E0,0E0,1.3337812E0,6.188683E0,0E0,1.576005E0,0E0,3.0827856E0,1.6874697E0,0E0,1.005579E0,0E0,8.7815475E-1,0E0,0E0,0E0,0E0,0E0,0E0,1.3818669E0,6.078005E-1,0E0,0E0,0E0,3.0696824E0,0E0,2.2009947E0,1.0764074E0,2.3261518E0,4.3133974E0,1.6886349E0,2.418777E0,0E0,1.2416873E0,0E0,0E0,0E0,0E0,0E0,0E0,0E0,0E0,0E0,0E0,0E0,0E0,0E0,0E0,0E0,0E0,0E0,0E0,0E0,0E0,0E0,0E0,0E0,0E0,0E0,0E0],"parents":[2147483647,0,0,1,1,2,2,3,3,4,4,5,5,6,6,7,7,8,8,9,9,10,10,11,11,12,12,13,13,17,17,18,18,19,19,20,20,21,21,23,23,24,24,25,25,26,26,27,27,28,28,30,30,32,32,35,35,36,36,37,37,39,39,40,40,41,41,42,42,45,45,46,46,48,48,50,50,51,51,53,53,55,55,62,62,63,63,67,67,69,69,70,70,71,71,72,72,73,73,74,74,76,76],"right_children":[2,4,6,8,10,12,14,16,18,20,22,24,26,28,-1,-1,-1,30,32,34,36,38,-1,40,42,44,46,48,50,-1,52,-1,54,-1,-1,56,58,60,-1,62,64,66,68,-1,-1,70,72,-1,74,-1,76,78,-1,80,-1,82,-1,-1,-1,-1,-1,-1,84,86,-1,-1,-1,88,-1,90,92,94,96,98,100,-1,102,-1,-1,-1,-1,-1,-1,-1,-1,-1,-1,-1,-1,-1,-1,-1,-1,-1,-1,-1,-1,-1,-1,-1,-1,-1,-1],"split_conditions":[2.4228457E-2,3.013113E0,1.3328493E-1,-5.8805674E-1,3.0409306E-2,3.109129E0,4.5268023E-1,8.6111677E-1,7.212239E-1,4.0544496E0,4.185058E-1,2.3426346E-1,6.88334E-4,5.983828E-1,2.3039073E-1,1.6636102E-1,-5.2811917E-2,4.0130505E-1,4.1173077E-1,6.6140014E-1,4.1230312E-1,5.4866414E0,1.5983959E-1,6.855225E-1,2.4285715E0,4.253515E-2,5.247902E-1,1E0,1.15681335E-1,3.091136E-1,5.2697115E-2,1.1774928E-1,1.4514285E0,-1.3845827E-1,2.2576925E-1,9.4380274E-2,2.2891012E-1,1.8321191E-1,2.038275E-2,7.673025E-1,5.507665E-2,1.0996372E-1,1.0516455E1,3.20216E-1,8.933307E-2,2.1481754E-1,6E0,9.999944E-2,3.5307226E-1,2.3036005E-1,1.1258278E-1,6.3829035E-1,2.2858249E-1,5.055654E-2,2.901053E-1,-6.4898646E-1,6.8918094E-2,2.634644E-1,-4.0169455E-2,-1.6963196E-1,-4.5908235E-2,-1.497675E-1,1.416936E0,4.057212E-2,-8.415797E-3,1.1422015E-1,3.329724E-1,1.0657125E0,2.571971E-1,4.118396E-1,3.7022242E-1,5.1370587E0,3.9147803E-1,7.5508964E-1,2.5293462E0,1.2558943E-1,1.5231185E-1,-1.08735695E-1,9.6042894E-2,2.4741466E-1,8.159055E-2,1.06990226E-1,2.6376644E-1,1.21844865E-1,-6.3215405E-2,1.1397428E-1,2.84114E-1,-8.185337E-2,1.7826527E-1,-1.2678865E-1,1.2229808E-1,-1.6696852E-1,-3.3965994E-2,1.4461818E-1,2.7910378E-2,-1.3653004E-1,3.0321037E-2,2.8156403E-3,-1.6527875E-1,-1.06816344E-1,9.402982E-2,8.375798E-3,-1.5827852E-1],"split_indices":[9,23,10,23,10,23,8,7,2,23,16,16,16,3,0,0,0,2,15,15,16,25,0,15,19,9,15,0,8,0,11,0,23,0,0,8,12,3,0,2,9,3,25,0,0,16,0,0,16,0,16,12,0,21,0,8,0,0,0,0,0,0,14,8,0,0,0,12,0,3,16,19,12,1,14,0,10,0,0,0,0,0,0,0,0,0,0,0,0,0,0,0,0,0,0,0,0,0,0,0,0,0,0],"split_type":[0,0,0,0,0,0,0,0,0,0,0,0,0,0,0,0,0,0,0,0,0,0,0,0,0,0,0,0,0,0,0,0,0,0,0,0,0,0,0,0,0,0,0,0,0,0,0,0,0,0,0,0,0,0,0,0,0,0,0,0,0,0,0,0,0,0,0,0,0,0,0,0,0,0,0,0,0,0,0,0,0,0,0,0,0,0,0,0,0,0,0,0,0,0,0,0,0,0,0,0,0,0,0],"sum_hessian":[5.8320654E2,2.0339865E2,3.7980786E2,1.1350228E2,8.989637E1,2.5004356E2,1.2976431E2,1.1384786E1,1.0211749E2,6.727309E1,2.2623285E1,8.339546E1,1.666481E2,1.21654976E2,8.109331E0,6.0830555E0,5.30173E0,2.5186506E1,7.6930984E1,1.4862093E1,5.241099E1,1.7591274E1,5.032011E0,3.745012E1,4.594534E1,1.2853158E1,1.5379494E2,8.967638E1,3.1978603E1,7.2844815E0,1.7902025E1,5.440089E0,7.14909E1,8.344223E0,6.5178695E0,3.7579384E1,1.4831608E1,1.25580225E1,5.0332513E0,2.0279533E1,1.7170584E1,2.2340752E1,2.360459E1,5.2883945E0,7.5647635E0,3.513495E1,1.1865999E2,5.517776E0,8.41586E1,7.9641204E0,2.4014482E1,1.2802667E1,5.0993576E0,3.432051E1,3.7170387E1,3.1536922E1,6.042462E0,5.234576E0,9.597032E0,6.8655114E0,5.692511E0,7.628435E0,1.2651098E1,1.1803079E1,5.367506E0,6.148579E0,1.6192171E1,1.52042055E1,8.400384E0,1.0818068E1,2.4316883E1,6.325897E1,5.5401024E1,5.7606964E1,2.6551634E1,5.929471E0,1.808501E1,7.4081497E0,5.394517E0,2.9195341E1,5.125171E0,5.8747325E0,2.566219E1,6.458369E0,6.19273E0,5.50177E0,6.3013086E0,9.51217E0,5.692036E0,5.0278797E0,5.7901874E0,1.5073617E1,9.243266E0,3.5948498E1,2.7310472E1,2.3238596E1,3.2162426E1,5.953631E0,5.1653336E1,2.0168653E1,6.3829803E0,5.596259E0,1.2488752E1],"tree_param":{"num_deleted":"0","num_feature":"26","num_nodes":"103","size_leaf_vector":"1"}},{"base_weights":[-4.8273182E-1,1.6860175E-1,-5.297681E-1,-4.120129E-1,5.2287525E-1,-1.2790759E-2,-5.447735E-1,-6.253338E-2,-1.6017435E-1,2.5793532E-1,3.3593316E-2,9.799573E-2,-1.1203392E-1,-5.5785614E-1,-1.5955317E-1,-5.671778E-1,-2.7173218E-1,8.028994E-2,-1.6036531E-1,-5.74789E-1,-6.835082E-2,-1.6008079E-1,4.448016E-2,-4.6286446E-1,-5.892769E-1,3.341761E-2,-1.6304204E-1,-1.0533423E-1,-1.7766644E-1],"categories":[],"categories_nodes":[],"categories_segments":[],"categories_sizes":[],"default_left":[0,0,0,0,0,0,0,0,0,0,0,0,0,0,0,0,0,0,0,0,0,0,0,0,0,0,0,0,0],"id":9,"left_children":[1,3,5,7,9,11,13,-1,-1,-1,-1,-1,-1,15,17,19,21,-1,-1,23,-1,-1,-1,25,27,-1,-1,-1,-1],"loss_changes":[1.3092361E1,6.2515388E0,3.0656662E0,1.7853618E-1,2.487661E0,1.6150846E0,1.8507309E0,0E0,0E0,0E0,0E0,0E0,0E0,8.376541E-1,2.3926141E0,7.967758E-1,1.5806324E0,0E0,0E0,2.958603E-1,0E0,0E0,0E0,2.1366577E0,7.2250366E-3,0E0,0E0,0E0,0E0],"parents":[2147483647,0,0,1,1,2,2,3,3,4,4,5,5,6,6,13,13,14,14,15,15,16,16,19,19,23,23,24,24],"right_children":[2,4,6,8,10,12,14,-1,-1,-1,-1,-1,-1,16,18,20,22,-1,-1,24,-1,-1,-1,26,28,-1,-1,-1,-1],"split_conditions":[2.8088605E-1,7.055379E-1,-1.2167136E-1,3.0137336E0,9.2227036E-1,3.7870428E-1,1.0311733E1,-6.253338E-2,-1.6017435E-1,2.5793532E-1,3.3593316E-2,9.799573E-2,-1.1203392E-1,1.1E1,1.3759563E0,4.8610373E2,6.074766E0,8.028994E-2,-1.6036531E-1,1.6584669E0,-6.835082E-2,-1.6008079E-1,4.448016E-2,1.1971154E0,-4.2749286E0,3.341761E-2,-1.6304204E-1,-1.0533423E-1,-1.7766644E-1],"split_indices":[23,15,9,13,15,3,14,0,0,0,0,0,0,0,18,23,25,0,0,23,0,0,0,25,14,0,0,0,0],"split_type":[0,0,0,0,0,0,0,0,0,0,0,0,0,0,0,0,0,0,0,0,0,0,0,0,0,0,0,0,0],"sum_hessian":[4.2343216E2,2.8344742E1,3.950874E2,1.0679406E1,1.7665335E1,1.1196308E1,3.8389108E2,5.01485E0,5.6645565E0,9.106305E0,8.559031E0,5.8163433E0,5.379965E0,3.7084842E2,1.304267E1,3.5819647E2,1.2651962E1,6.2309113E0,6.8117595E0,3.4965994E2,8.536513E0,7.626402E0,5.0255604E0,4.3850037E1,3.058099E2,5.3506017E0,3.8499435E1,5.203191E0,3.0060672E2],"tree_param":{"num_deleted":"0","num_feature":"26","num_nodes":"29","size_leaf_vector":"1"}},{"base_weights":[-2.2691444E-2,-2.003761E-1,4.1015875E-1,-4.406753E-1,4.8134844E-3,1.375335E-1,6.350784E-1,-5.428778E-1,-3.2959595E-1,-1.4855309E-1,2.902802E-1,-1.5477577E-1,2.6360488E-1,2.8802136E-1,9.785479E-1,-6.226061E-2,-5.621396E-1,-4.6536154E-1,-1.3474716E-1,-3.4031674E-1,1.7506752E-2,6.167366E-1,8.295654E-2,-1.551466E-1,4.9229625E-1,5.5661E-1,-6.6910516E-3,3.3136654E-1,3.8619168E-2,-1.7499912E-1,-7.0202835E-2,-5.3619194E-1,3.014749E-2,-2.8835097E-1,1.3846147E-1,-4.0118256E-1,-4.080581E-3,1.6940562E-1,-5.0260484E-1,1.6239248E-1,1.01498E0,4.497435E-1,-3.1655306E-1,1.5917583E-1,-4.026425E-1,7.26125E-1,-5.89761E-2,1.0004978E-2,7.23548E-1,3.8438886E-1,-1.2910032E-1,-1.7642207E-1,-3.561791E-1,2.098452E-2,-4.8445576E-1,-5.2199686E-1,-7.721264E-2,-3.0419352E-2,6.056529E-1,-1.8304534E-1,-7.090259E-2,-1.2978306E-1,1.8712695E-1,1.5284099E-1,3.786778E-1,-3.0601585E-2,8.0622965E-1,-7.7518106E-2,-1.8135014E-1,-1.8787313E-1,9.854384E-3,9.194899E-1,9.173369E-2,-9.2559725E-2,7.272557E-2,2.7779227E-1,1.2407818E-1,9.967633E-3,1.9996509E-1,-2.6570154E-2,-1.6664651E-1,-1.7381874E-1,-6.083152E-2,-1.6957319E-1,-6.562894E-2,-1.24757655E-1,6.789938E-2,1.21024616E-1,-6.638261E-2,2.6064402E-1,6.562301E-2,1.3555159E-1,3.360063E-1,8.261568E-2,-1.2955238E-1,3.308814E-1,1.27932E-1],"categories":[],"categories_nodes":[],"categories_segments":[],"categories_sizes":[],"default_left":[0,0,0,0,0,0,0,0,0,0,0,0,0,0,0,0,0,0,0,0,0,0,0,0,0,0,0,0,0,0,0,0,0,0,0,0,0,0,0,0,0,0,0,0,0,0,0,0,0,0,0,0,0,0,0,0,0,0,0,0,0,0,0,0,0,0,0,0,0,0,0,0,0,0,0,0,0,0,0,0,0,0,0,0,0,0,0,0,0,0,0,0,0,0,0,0,0],"id":10,"left_children":[1,3,5,7,9,11,13,15,17,19,21,-1,23,25,27,-1,29,31,33,35,37,39,41,43,45,47,49,-1,-1,-1,-1,51,-1,53,-1,55,-1,57,59,61,63,65,67,-1,69,71,73,-1,75,77,-1,-1,79,-1,81,83,85,87,89,-1,-1,-1,-1,-1,-1,-1,91,93,-1,-1,-1,95,-1,-1,-1,-1,-1,-1,-1,-1,-1,-1,-1,-1,-1,-1,-1,-1,-1,-1,-1,-1,-1,-1,-1,-1,-1],"loss_changes":[3.908699E1,1.7763474E1,8.983091E0,1.7047615E0,8.593307E0,5.749997E0,9.3469925E0,4.3154144E-1,2.107973E0,4.07256E0,4.5912447E0,0E0,5.610325E0,3.2962751E0,4.160511E0,0E0,4.1750526E-1,1.9757862E0,3.3482642E0,1.1740403E0,5.5671945E0,4.6275225E0,6.4588165E0,3.80686E0,4.8915052E0,1.8778853E0,3.6150644E0,0E0,0E0,0E0,0E0,1.9003677E-1,0E0,2.038416E0,0E0,1.9152927E0,0E0,4.765229E0,3.1214857E-1,3.9927948E0,1.0974302E0,4.5837355E0,1.4136517E0,0E0,1.5908234E0,1.8717098E0,9.869868E-1,0E0,6.4972687E-1,1.1029586E0,0E0,0E0,5.965103E-1,0E0,3.7896013E-1,3.5132122E-1,1.6098217E0,3.2603607E0,1.5565972E0,0E0,0E0,0E0,0E0,0E0,0E0,0E0,1.0525284E0,1.7121418E0,0E0,0E0,0E0,1.1254911E0,0E0,0E0,0E0,0E0,0E0,0E0,0E0,0E0,0E0,0E0,0E0,0E0,0E0,0E0,0E0,0E0,0E0,0E0,0E0,0E0,0E0,0E0,0E0,0E0,0E0],"parents":[2147483647,0,0,1,1,2,2,3,3,4,4,5,5,6,6,7,7,8,8,9,9,10,10,12,12,13,13,14,14,16,16,17,17,18,18,19,19,20,20,21,21,22,22,23,23,24,24,25,25,26,26,31,31,33,33,35,35,37,37,38,38,39,39,40,40,41,41,42,42,44,44,45,45,46,46,48,48,49,49,52,52,54,54,55,55,56,56,57,57,58,58,66,66,67,67,71,71],"right_children":[2,4,6,8,10,12,14,16,18,20,22,-1,24,26,28,-1,30,32,34,36,38,40,42,44,46,48,50,-1,-1,-1,-1,52,-1,54,-1,56,-1,58,60,62,64,66,68,-1,70,72,74,-1,76,78,-1,-1,80,-1,82,84,86,88,90,-1,-1,-1,-1,-1,-1,-1,92,94,-1,-1,-1,96,-1,-1,-1,-1,-1,-1,-1,-1,-1,-1,-1,-1,-1,-1,-1,-1,-1,-1,-1,-1,-1,-1,-1,-1,-1],"split_conditions":[1.3660628E-1,6.251694E-2,8.76233E0,3.1712568E0,9E0,1.4435054E0,5.0066953E0,3.2228038E-1,1.0011123E1,8.3439045E-2,4.2666396E-1,-1.5477577E-1,3E0,1.1338032E0,1.3022616E1,-6.226061E-2,5.4073893E-2,5.3193394E-2,1.2533989E0,3.9502475E-1,2.3121895E-1,3.3288366E-1,2.0955025E-1,1.9828759E-1,9.3908E0,3.212852E0,2.0433953E0,3.3136654E-1,3.8619168E-2,-1.7499912E-1,-7.0202835E-2,8.896635E-2,3.014749E-2,-3.337543E-3,1.3846147E-1,7.021159E1,-4.080581E-3,6.146872E0,3.467918E-1,9.8910674E-2,5.4392204E0,6.6486575E-2,4.6687397E1,1.5917583E-1,4.8807777E1,3.468877E-1,2.086719E1,1.0004978E-2,4E0,1.6441281E0,-1.2910032E-1,-1.7642207E-1,3.1664097E-1,2.098452E-2,1.8020893E1,3.5497835E-1,1.1722987E1,2.5480488E-1,1.487096E0,-1.8304534E-1,-7.090259E-2,-1.2978306E-1,1.8712695E-1,1.5284099E-1,3.786778E-1,-3.0601585E-2,1.8451635E0,1.2060957E-1,-1.8135014E-1,-1.8787313E-1,9.854384E-3,1.8614745E-1,9.173369E-2,-9.2559725E-2,7.272557E-2,2.7779227E-1,1.2407818E-1,9.967633E-3,1.9996509E-1,-2.6570154E-2,-1.6664651E-1,-1.7381874E-1,-6.083152E-2,-1.6957319E-1,-6.562894E-2,-1.24757655E-1,6.789938E-2,1.21024616E-1,-6.638261E-2,2.6064402E-1,6.562301E-2,1.3555159E-1,3.360063E-1,8.261568E-2,-1.2955238E-1,3.308814E-1,1.27932E-1],"split_indices":[10,6,22,23,0,13,23,2,22,10,13,0,0,2,23,0,6,5,12,16,11,16,24,11,13,13,20,0,0,0,0,10,0,11,0,4,0,19,11,5,23,5,4,0,4,16,13,0,0,2,0,0,16,0,22,16,22,16,2,0,0,0,0,0,0,0,18,11,0,0,0,5,0,0,0,0,0,0,0,0,0,0,0,0,0,0,0,0,0,0,0,0,0,0,0,0,0],"split_type":[0,0,0,0,0,0,0,0,0,0,0,0,0,0,0,0,0,0,0,0,0,0,0,0,0,0,0,0,0,0,0,0,0,0,0,0,0,0,0,0,0,0,0,0,0,0,0,0,0,0,0,0,0,0,0,0,0,0,0,0,0,0,0,0,0,0,0,0,0,0,0,0,0,0,0,0,0,0,0,0,0,0,0,0,0,0,0,0,0,0,0,0,0,0,0,0,0],"sum_hessian":[5.0614316E2,3.5922052E2,1.4692265E2,1.6492632E2,1.942942E2,6.714619E1,7.977647E1,8.3870735E1,8.105558E1,1.2670288E2,6.7591324E1,1.0359354E1,5.6786835E1,4.0595505E1,3.918096E1,5.1953616E0,7.867538E1,4.6952187E1,3.410339E1,5.831367E1,6.8389206E1,2.5485905E1,4.210542E1,2.0171978E1,3.6614857E1,2.077415E1,1.9821354E1,3.3860516E1,5.3204474E0,7.317214E1,5.503235E0,4.1775394E1,5.176794E0,2.752845E1,6.57494E0,4.8963936E1,9.349735E0,5.345263E1,1.4936579E1,1.2562029E1,1.2923875E1,2.1886154E1,2.0219265E1,5.046343E0,1.5125635E1,2.5487041E1,1.1127813E1,5.3148265E0,1.5459325E1,1.0354975E1,9.466378E0,3.0669317E1,1.1106076E1,9.964964E0,1.7563486E1,3.5218914E1,1.3745025E1,3.7298264E1,1.6154362E1,9.719315E0,5.2172647E0,5.513636E0,7.048393E0,5.2505465E0,7.6733284E0,8.870604E0,1.3015552E1,1.1741476E1,8.477789E0,9.704744E0,5.4208903E0,1.6643394E1,8.843648E0,6.0744534E0,5.0533605E0,8.149534E0,7.3097906E0,5.1113753E0,5.2435994E0,5.3572645E0,5.7488117E0,1.2345578E1,5.2179074E0,3.0066748E1,5.152164E0,6.321965E0,7.4230595E0,1.1055131E1,2.6243134E1,8.873466E0,7.280897E0,7.2581935E0,5.757358E0,5.9941363E0,5.7473392E0,1.1228618E1,5.414776E0],"tree_param":{"num_deleted":"0","num_feature":"26","num_nodes":"97","size_leaf_vector":"1"}},{"base_weights":[1.2697102E-1,-1.231325E-1,2.3498195E-1,-3.5196617E-1,8.037277E-2,3.1526467E-1,5.9824757E-4,1.756412E-1,-4.3121445E-1,-3.695108E-1,1.788684E-1,3.6095196E-1,-2.9948711E-2,3.62773E-1,-1.2291218E-1,1.6859655E-1,-6.679926E-2,-2.6259917E-1,-5.435774E-1,3.3610765E-2,-1.7517138E-1,-2.2772475E-1,3.0498475E-1,4.834848E-1,2.1111228E-1,-2.952542E-1,4.3167388E-1,7.4561155E-1,-9.067474E-2,-1.8966174E-1,1.8770945E-1,-4.0313238E-1,6.688941E-2,-9.121771E-2,-1.752414E-1,9.241703E-4,-1.7248638E-1,-7.040664E-2,6.016996E-1,5.1001903E-2,5.7373744E-1,1.4361067E-1,2.890413E-1,7.586462E-2,-1.7615189E-1,2.4287747E-1,-3.5959035E-2,5.286823E-2,3.1703353E-1,-1.3638908E-1,1.0832637E-1,-3.971424E-1,4.6469145E-2,-3.3136413E-2,-1.589704E-1,9.011918E-2,-8.811211E-2,-1.5277486E-1,2.3898602E-1,-4.3942202E-2,7.7560055E-1,-3.0705547E-1,4.5611498E-1,7.4593663E-1,2.9036143E-1,2.8126523E-1,-7.7228256E-2,-4.7520196E-1,-3.890038E-2,2.1851851E-1,-1.1351163E-1,2.4398458E-1,-3.046906E-2,3.0373234E-1,5.28161E-2,-9.374808E-4,-1.7534624E-1,2.3154056E-1,1.0279753E-2,2.4134868E-1,2.5681254E-2,1.6038382E-1,-1.9522314E-3,-5.579302E-3,1.292126E-1,-1.1851754E-1,3.57438E-2,-1.6639063E-1,-4.1524217E-2,2.5830207E-2,-1.770981E-1],"categories":[],"categories_nodes":[],"categories_segments":[],"categories_sizes":[],"default_left":[0,0,0,0,0,0,0,0,0,0,0,0,0,0,0,0,0,0,0,0,0,0,0,0,0,0,0,0,0,0,0,0,0,0,0,0,0,0,0,0,0,0,0,0,0,0,0,0,0,0,0,0,0,0,0,0,0,0,0,0,0,0,0,0,0,0,0,0,0,0,0,0,0,0,0,0,0,0,0,0,0,0,0,0,0,0,0,0,0,0,0],"id":11,"left_children":[1,3,5,7,9,11,13,15,17,19,21,23,25,27,29,-1,-1,31,33,-1,-1,35,37,39,41,43,45,47,49,51,-1,53,-1,-1,-1,55,-1,57,59,61,63,65,-1,-1,-1,-1,-1,-1,-1,-1,-1,67,69,-1,-1,-1,-1,-1,71,-1,73,75,77,79,81,83,85,87,-1,-1,89,-1,-1,-1,-1,-1,-1,-1,-1,-1,-1,-1,-1,-1,-1,-1,-1,-1,-1,-1,-1],"loss_changes":[1.5447966E1,8.075829E0,7.5072403E0,3.4846144E0,4.155202E0,4.697859E0,4.642802E0,1.8728387E0,1.2056789E0,1.8102822E0,3.9860632E0,4.7178917E0,4.4943557E0,4.649482E0,3.9863114E0,0E0,0E0,2.1640391E0,2.282362E-1,0E0,0E0,1.4816275E0,6.583379E0,5.5775948E0,5.9495893E0,3.8666544E0,2.8941832E0,2.3685207E0,2.297397E0,3.53765E0,0E0,8.2931066E-1,0E0,0E0,0E0,1.1687961E0,0E0,3.7632499E0,4.394724E0,3.8967292E0,5.5778923E0,3.4015794E0,0E0,0E0,0E0,0E0,0E0,0E0,0E0,0E0,0E0,7.388792E-1,3.845507E0,0E0,0E0,0E0,0E0,0E0,3.292185E0,0E0,3.635439E0,1.2077739E0,1.6452875E0,2.7626343E0,3.3767722E0,3.0868711E0,2.7605717E0,7.071576E-1,0E0,0E0,2.792183E0,0E0,0E0,0E0,0E0,0E0,0E0,0E0,0E0,0E0,0E0,0E0,0E0,0E0,0E0,0E0,0E0,0E0,0E0,0E0,0E0],"parents":[2147483647,0,0,1,1,2,2,3,3,4,4,5,5,6,6,7,7,8,8,9,9,10,10,11,11,12,12,13,13,14,14,17,17,18,18,21,21,22,22,23,23,24,24,25,25,26,26,27,27,28,28,29,29,31,31,35,35,37,37,38,38,39,39,40,40,41,41,51,51,52,52,58,58,60,60,61,61,62,62,63,63,64,64,65,65,66,66,67,67,70,70],"right_children":[2,4,6,8,10,12,14,16,18,20,22,24,26,28,30,-1,-1,32,34,-1,-1,36,38,40,42,44,46,48,50,52,-1,54,-1,-1,-1,56,-1,58,60,62,64,66,-1,-1,-1,-1,-1,-1,-1,-1,-1,68,70,-1,-1,-1,-1,-1,72,-1,74,76,78,80,82,84,86,88,-1,-1,90,-1,-1,-1,-1,-1,-1,-1,-1,-1,-1,-1,-1,-1,-1,-1,-1,-1,-1,-1,-1],"split_conditions":[3.013113E0,2.7825914E-2,1.4487559E-1,4.7512594E-1,7.945455E-1,1E1,2E0,2.4224117E0,2.3925138E-1,8.886317E-1,9.835097E-2,5.118629E-1,1.4328378E-1,9.511719E0,1.6021011E1,1.6859655E-1,-6.679926E-2,4.8244107E-1,-1.1053316E-1,3.3610765E-2,-1.7517138E-1,7.3958117E-1,2.3760874E0,1.8202739E-2,3.5054394E1,5.7339926E0,8.950605E-2,5.327778E0,9.315417E0,3.3288366E-1,1.8770945E-1,1.555059E0,6.688941E-2,-9.121771E-2,-1.752414E-1,1.0976542E-1,-1.7248638E-1,1.0365011E-1,3.1961572E-1,9.000716E0,9.184296E-2,3.409171E0,2.890413E-1,7.586462E-2,-1.7615189E-1,2.4287747E-1,-3.5959035E-2,5.286823E-2,3.1703353E-1,-1.3638908E-1,1.0832637E-1,3.6428459E0,3.492077E-1,-3.3136413E-2,-1.589704E-1,9.011918E-2,-8.811211E-2,-1.5277486E-1,1.4691772E-1,-4.3942202E-2,1.7468355E0,5.303859E0,3.050728E-1,1.2498083E-1,1.6120919E0,3.8102448E-1,4.7055116E0,1.4719999E0,-3.890038E-2,2.1851851E-1,9.52328E0,2.4398458E-1,-3.046906E-2,3.0373234E-1,5.28161E-2,-9.374808E-4,-1.7534624E-1,2.3154056E-1,1.0279753E-2,2.4134868E-1,2.5681254E-2,1.6038382E-1,-1.9522314E-3,-5.579302E-3,1.292126E-1,-1.1851754E-1,3.57438E-2,-1.6639063E-1,-4.1524217E-2,2.5830207E-2,-1.770981E-1],"split_indices":[23,9,10,15,19,0,0,1,7,1,16,7,8,19,22,0,0,16,16,0,0,15,20,5,19,22,10,23,23,16,0,1,0,0,0,10,0,21,18,22,10,18,0,0,0,0,0,0,0,0,0,14,16,0,0,0,0,0,8,0,18,19,16,5,1,13,18,2,0,0,22,0,0,0,0,0,0,0,0,0,0,0,0,0,0,0,0,0,0,0,0],"split_type":[0,0,0,0,0,0,0,0,0,0,0,0,0,0,0,0,0,0,0,0,0,0,0,0,0,0,0,0,0,0,0,0,0,0,0,0,0,0,0,0,0,0,0,0,0,0,0,0,0,0,0,0,0,0,0,0,0,0,0,0,0,0,0,0,0,0,0,0,0,0,0,0,0,0,0,0,0,0,0,0,0,0,0,0,0,0,0,0,0,0,0],"sum_hessian":[5.69781E2,1.718095E2,3.9797153E2,8.052866E1,9.128083E1,2.9617764E2,1.0179387E2,1.0357267E1,7.0171394E1,1.5900946E1,7.537988E1,2.6152103E2,3.4656616E1,2.5393698E1,7.640017E1,5.04895E0,5.308317E0,2.9395966E1,4.077543E1,5.0455775E0,1.0855368E1,1.7655075E1,5.772481E1,1.4264502E2,1.18876015E2,2.2236927E1,1.2419691E1,1.3419508E1,1.1974189E1,7.0831184E1,5.568987E0,2.2929432E1,6.466533E0,7.135468E0,3.363996E1,1.1246594E1,6.4084816E0,2.5820496E1,3.1904314E1,2.4898521E1,1.1774649E2,1.1018142E2,8.694594E0,7.7737904E0,1.4463136E1,7.092188E0,5.327503E0,5.295662E0,8.123846E0,6.6280537E0,5.346135E0,3.733992E1,3.349127E1,7.495504E0,1.5433928E1,5.567762E0,5.6788325E0,1.0409576E1,1.5410919E1,6.04682E0,2.5857494E1,1.3345346E1,1.1553175E1,7.222512E1,4.5521378E1,6.770533E1,4.247609E1,2.8303282E1,9.036635E0,5.688926E0,2.7802341E1,5.219952E0,1.0190968E1,1.8041744E1,7.8157506E0,6.8511176E0,6.494229E0,6.133591E0,5.419584E0,6.614132E1,6.083797E0,2.4534542E1,2.0986834E1,2.2810633E1,4.4894695E1,1.5835193E1,2.6640898E1,2.237837E1,5.9249115E0,2.0175547E1,7.626795E0],"tree_param":{"num_deleted":"0","num_feature":"26","num_nodes":"91","size_leaf_vector":"1"}},{"base_weights":[1.7497994E-1,3.3254448E-1,-2.2738576E-2,5.14756E-1,1.782012E-1,2.2179496E-1,-1.33951E-1,4.496802E-1,2.537062E-1,9.754348E-2,4.839766E-1,4.949994E-1,7.209526E-2,2.5057602E-1,-1.7324007E-1,4.8210385E-1,-4.113765E-2,4.8929873E-1,2.5073353E-3,7.0472753E-1,5.105884E-2,7.754859E-1,1.7825167E-1,-3.2641855E-1,3.1102633E-1,-4.555375E-3,-3.4435236E-1,3.021524E-1,5.6952465E-1,1.6612871E-1,6.701192E-1,7.862199E-2,-3.542839E-1,8.37187E-1,6.023195E-2,-9.7615145E-2,1.312849E-1,1.1611699E-1,3.4413126E-1,-5.5471215E-2,1.5547067E-1,-1.5702005E-1,3.4606665E-2,7.216137E-1,3.7456946E-3,-2.2770795E-1,2.2610867E-1,1.3032062E-1,-4.0160692E-1,1.1790025E-1,5.7897615E-1,3.8595957E-1,7.0346606E-1,1.2899753E-1,-3.8314685E-2,5.5719458E-2,2.7811658E-1,-4.532862E-2,3.0085567E-1,-1.7729773E-1,-1.0930387E-1,3.0386916E-1,1.6829945E-1,2.6857537E-1,1.0992166E-1,-3.5199243E-1,1.6389441E-1,-3.2253808E-1,6.935164E-2,4.0393925E-1,-7.075203E-2,-8.9190386E-2,-4.8174006E-1,9.039813E-2,-7.73556E-2,7.7356055E-2,2.1489348E-1,1.4803696E-1,-5.7795104E-2,1.09550945E-1,2.3744494E-1,3.10418E-2,-1.0881492E-1,3.2363836E-2,2.4639544E-1,-1.2578094E-1,6.681605E-2,-1.7706956E-1,2.5556688E-3,1.2202016E-2,-1.4055806E-1,2.0715682E-2,2.2977202E-1,8.8554904E-2,-1.1044064E-1,-1.3551636E-1,1.8973352E-1,-1.8174611E-1,-1.0041174E-1],"categories":[],"categories_nodes":[],"categories_segments":[],"categories_sizes":[],"default_left":[0,0,0,0,0,0,0,0,0,0,0,0,0,0,0,0,0,0,0,0,0,0,0,0,0,0,0,0,0,0,0,0,0,0,0,0,0,0,0,0,0,0,0,0,0,0,0,0,0,0,0,0,0,0,0,0,0,0,0,0,0,0,0,0,0,0,0,0,0,0,0,0,0,0,0,0,0,0,0,0,0,0,0,0,0,0,0,0,0,0,0,0,0,0,0,0,0,0,0],"id":12,"left_children":[1,3,5,7,9,11,13,15,-1,17,19,21,23,-1,25,27,-1,29,31,33,35,37,39,41,43,45,47,49,51,53,55,57,59,61,-1,-1,-1,-1,-1,-1,-1,-1,-1,63,65,67,69,-1,71,73,75,77,79,-1,-1,-1,-1,81,83,-1,85,-1,-1,-1,-1,87,-1,89,-1,91,93,95,97,-1,-1,-1,-1,-1,-1,-1,-1,-1,-1,-1,-1,-1,-1,-1,-1,-1,-1,-1,-1,-1,-1,-1,-1,-1,-1],"loss_changes":[1.8063816E1,8.981136E0,7.045494E0,2.7944908E0,4.298254E0,3.2781367E0,6.921024E0,2.4506798E0,0E0,5.2360234E0,3.454424E0,2.394773E0,5.1970267E0,0E0,4.9586916E0,1.699791E0,0E0,1.4931846E0,3.1295068E0,1.4413948E0,2.0941162E0,1.6955957E0,1.9093556E0,1.8483646E0,4.282875E0,4.558069E0,3.9776316E0,2.0247457E0,1.6697254E0,9.218186E-1,1.9780369E0,2.6291053E0,1.1104085E0,3.429985E-1,0E0,0E0,0E0,0E0,0E0,0E0,0E0,0E0,0E0,5.6843233E-1,4.136178E0,2.032712E0,2.3277893E0,0E0,1.9592085E0,1.8622942E0,5.272021E-1,2.3045263E0,1.0339527E0,0E0,0E0,0E0,0E0,2.957234E0,3.3390338E0,0E0,1.24442E0,0E0,0E0,0E0,0E0,1.1172491E0,0E0,2.0186014E0,0E0,3.2668118E0,1.9768305E0,4.877811E0,9.543085E-1,0E0,0E0,0E0,0E0,0E0,0E0,0E0,0E0,0E0,0E0,0E0,0E0,0E0,0E0,0E0,0E0,0E0,0E0,0E0,0E0,0E0,0E0,0E0,0E0,0E0,0E0],"parents":[2147483647,0,0,1,1,2,2,3,3,4,4,5,5,6,6,7,7,9,9,10,10,11,11,12,12,14,14,15,15,17,17,18,18,19,19,20,20,21,21,22,22,23,23,24,24,25,25,26,26,27,27,28,28,29,29,30,30,31,31,32,32,33,33,43,43,44,44,45,45,46,46,48,48,49,49,50,50,51,51,52,52,57,57,58,58,60,60,65,65,67,67,69,69,70,70,71,71,72,72],"right_children":[2,4,6,8,10,12,14,16,-1,18,20,22,24,-1,26,28,-1,30,32,34,36,38,40,42,44,46,48,50,52,54,56,58,60,62,-1,-1,-1,-1,-1,-1,-1,-1,-1,64,66,68,70,-1,72,74,76,78,80,-1,-1,-1,-1,82,84,-1,86,-1,-1,-1,-1,88,-1,90,-1,92,94,96,98,-1,-1,-1,-1,-1,-1,-1,-1,-1,-1,-1,-1,-1,-1,-1,-1,-1,-1,-1,-1,-1,-1,-1,-1,-1,-1],"split_conditions":[6.402988E-2,2.8381503E0,7.297695E0,9.2466116E-2,1.0228075E1,3.9659104E-1,-7.047646E-1,6.869556E-2,2.537062E-1,4.51286E-1,1.3777325E-1,1.3417183E-1,4.982699E-1,2.5057602E-1,5.4257256E-1,5.0164814E0,-4.113765E-2,1.16038114E-1,1.086386E-1,1.352785E1,2.6346454E-2,3.304144E0,1.215556E0,2.6961458E-1,1.0714502E0,8.1762016E-1,2.6273784E-1,1.7737536E0,1.856431E-1,-2.2849083E-2,2.3990233E0,7.4648544E-2,9.572407E0,1.5879686E-1,6.023195E-2,-9.7615145E-2,1.312849E-1,1.1611699E-1,3.4413126E-1,-5.5471215E-2,1.5547067E-1,-1.5702005E-1,3.4606665E-2,2.9037E0,6.562148E0,1.2282937E0,6.724981E0,1.3032062E-1,1.1330787E-1,3.2955573E0,6.1765355E-1,8.896635E-2,2.841391E0,1.2899753E-1,-3.8314685E-2,5.5719458E-2,2.7811658E-1,3.737171E-2,1.3502562E0,-1.7729773E-1,1.6913027E-1,3.0386916E-1,1.6829945E-1,2.6857537E-1,1.0992166E-1,2.7258787E0,1.6389441E-1,8.681011E0,6.935164E-2,8.0814844E-1,2.8567224E0,8.43468E0,1.0977473E1,9.039813E-2,-7.73556E-2,7.7356055E-2,2.1489348E-1,1.4803696E-1,-5.7795104E-2,1.09550945E-1,2.3744494E-1,3.10418E-2,-1.0881492E-1,3.2363836E-2,2.4639544E-1,-1.2578094E-1,6.681605E-2,-1.7706956E-1,2.5556688E-3,1.2202016E-2,-1.4055806E-1,2.0715682E-2,2.2977202E-1,8.8554904E-2,-1.1044064E-1,-1.3551636E-1,1.8973352E-1,-1.8174611E-1,-1.0041174E-1],"split_indices":[5,23,22,8,13,7,17,21,0,13,10,10,17,0,12,25,0,17,10,22,5,13,2,21,25,13,18,23,7,5,20,8,25,7,0,0,0,0,0,0,0,0,0,20,25,2,13,0,8,25,13,10,13,0,0,0,0,21,2,0,11,0,0,0,0,20,0,22,0,7,18,25,22,0,0,0,0,0,0,0,0,0,0,0,0,0,0,0,0,0,0,0,0,0,0,0,0,0,0],"split_type":[0,0,0,0,0,0,0,0,0,0,0,0,0,0,0,0,0,0,0,0,0,0,0,0,0,0,0,0,0,0,0,0,0,0,0,0,0,0,0,0,0,0,0,0,0,0,0,0,0,0,0,0,0,0,0,0,0,0,0,0,0,0,0,0,0,0,0,0,0,0,0,0,0,0,0,0,0,0,0,0,0,0,0,0,0,0,0,0,0,0,0,0,0,0,0,0,0,0,0],"sum_hessian":[5.7859143E2,3.2161234E2,2.5697906E2,1.4641978E2,1.7519255E2,8.0025314E1,1.7695375E2,1.24329834E2,2.208995E1,1.3966942E2,3.552313E1,2.7510881E1,5.2514435E1,6.1045346E0,1.7084923E2,1.1798885E2,6.340983E0,2.6457699E1,1.13211716E2,2.3110765E1,1.2412363E1,1.3822503E1,1.3688378E1,1.9546541E1,3.296789E1,8.655189E1,8.429733E1,4.0035027E1,7.795383E1,1.0180833E1,1.6276865E1,9.39491E1,1.9262619E1,1.7777014E1,5.3337517E0,6.3686295E0,6.0437336E0,7.75658E0,6.0659237E0,6.8391943E0,6.849184E0,1.3390925E1,6.1556153E0,1.3534608E1,1.9433285E1,4.3998753E1,4.2553135E1,5.3220215E0,7.897531E1,2.4892586E1,1.5142441E1,3.452258E1,4.3431248E1,5.119948E0,5.0608854E0,6.238544E0,1.00383215E1,6.082182E1,3.3127277E1,9.078365E0,1.0184254E1,9.234597E0,8.542418E0,8.069576E0,5.4650316E0,1.1949671E1,7.483614E0,3.670962E1,7.2891297E0,2.638615E1,1.6166986E1,1.6552973E1,6.2422337E1,1.6860197E1,8.032388E0,5.3980546E0,9.744386E0,2.9237806E1,5.284773E0,1.0029896E1,3.340135E1,4.1867172E1,1.8954649E1,2.504749E1,8.07979E0,5.131188E0,5.053066E0,6.811301E0,5.13837E0,1.0731548E1,2.5978073E1,1.4324293E1,1.2061857E1,7.2514105E0,8.915576E0,1.1266839E1,5.2861342E0,3.216145E1,3.026089E1],"tree_param":{"num_deleted":"0","num_feature":"26","num_nodes":"99","size_leaf_vector":"1"}},{"base_weights":[-4.4883174E-1,-6.296851E-2,-5.12556E-1,-2.4481115E-1,2.980194E-1,-1.2864599E-2,-5.2326894E-1,2.4070086E-2,-3.4147468E-1,1.941586E-1,-1.2253076E-2,-1.7386699E-1,-5.425081E-1,-4.7603297E-1,-1.456805E-2,-1.307976E-1,4.4413928E-2,-5.5084676E-1,-3.0465832E-1,-1.6709642E-1,-6.46877E-2,-5.57078E-1,-6.490866E-2,-2.3973759E-3,-1.5304628E-1,-7.488876E-2,-5.636572E-1,-1.2160695E-1,-1.7098355E-1],"categories":[],"categories_nodes":[],"categories_segments":[],"categories_sizes":[],"default_left":[0,0,0,0,0,0,0,0,0,0,0,0,0,0,0,0,0,0,0,0,0,0,0,0,0,0,0,0,0],"id":13,"left_children":[1,3,5,7,9,-1,11,-1,13,-1,-1,15,17,19,-1,-1,-1,21,23,-1,-1,25,-1,-1,-1,-1,27,-1,-1],"loss_changes":[9.09063E0,3.5998225E0,1.579071E0,1.1672728E0,2.2094066E0,0E0,1.9969635E0,0E0,1.0865145E0,0E0,0E0,1.5587702E0,4.1606903E-1,2.8418827E-1,0E0,0E0,0E0,4.6970367E-1,7.4022424E-1,0E0,0E0,4.2035675E-1,0E0,0E0,0E0,0E0,3.8482666E-2,0E0,0E0],"parents":[2147483647,0,0,1,1,2,2,3,3,4,4,6,6,8,8,11,11,12,12,13,13,17,17,18,18,21,21,26,26],"right_children":[2,4,6,8,10,-1,12,-1,14,-1,-1,16,18,20,-1,-1,-1,22,24,-1,-1,26,-1,-1,-1,-1,28,-1,-1],"split_conditions":[-2.1089751E-2,8.465562E-1,-1.1779935E0,-1.5101033E-1,4.2189038E-1,-1.2864599E-2,3.52127E-4,2.4070086E-2,-2.3441251E-2,1.941586E-1,-1.2253076E-2,7.0271975E-1,2.7096076E0,2.3218236E0,-1.456805E-2,-1.307976E-1,4.4413928E-2,4.1046368E1,6.2255114E-1,-1.6709642E-1,-6.46877E-2,1.508052E-1,-6.490866E-2,-2.3973759E-3,-1.5304628E-1,-7.488876E-2,1.9187015E-1,-1.2160695E-1,-1.7098355E-1],"split_indices":[6,15,16,10,12,0,5,0,9,0,0,15,12,14,0,0,0,13,17,0,0,19,0,0,0,0,12,0,0],"split_type":[0,0,0,0,0,0,0,0,0,0,0,0,0,0,0,0,0,0,0,0,0,0,0,0,0,0,0,0,0],"sum_hessian":[3.7001797E2,5.2727962E1,3.1729004E2,3.527866E1,1.7449303E1,7.187321E0,3.101027E2,8.125499E0,2.715316E1,8.145747E0,9.3035555E0,1.670794E1,2.9339478E2,1.8177616E1,8.975544E0,9.0138445E0,7.694094E0,2.8218588E2,1.1208887E1,1.2997927E1,5.1796894E0,2.7637173E2,5.8141456E0,5.0120535E0,6.1968336E0,6.6061544E0,2.6976556E2,1.2807164E1,2.569584E2],"tree_param":{"num_deleted":"0","num_feature":"26","num_nodes":"29","size_leaf_vector":"1"}},{"base_weights":[-1.555298E-2,-2.9658425E-1,1.6322519E-1,-4.3179718E-1,-9.183762E-2,2.3628789E-1,-9.218598E-2,-1.6716352E-1,-3.2969248E-1,-4.1164434E-1,1.096835E-1,3.502424E-1,3.5262506E-2,-5.0006825E-1,6.921434E-2,6.570981E-2,-3.829344E-1,-4.1351695E-2,-4.9360603E-1,-2.4230249E-1,3.740166E-1,-9.4625585E-2,3.9922065E-1,-2.421449E-1,2.029427E-1,-1.7663084E-1,-6.508443E-2,3.864804E-1,-1.31872E-1,-6.611773E-2,-4.814673E-1,-1.7063923E-1,-6.030638E-2,1.494121E-2,-4.3352485E-1,5.777387E-1,-1.2541847E-1,2.0598803E-1,5.2277935E-1,-4.228162E-1,8.236417E-2,5.554124E-1,-5.8502898E-2,7.530929E-1,-7.971786E-2,8.4098384E-2,-1.5212402E-1,-1.5006052E-1,5.9441403E-2,-5.3779745E-1,-2.6509909E-2,-5.528665E-2,-1.7019019E-1,3.676466E-2,7.474046E-1,3.3956727E-1,-1.5966852E-1,6.4829016E-1,1.6737837E-1,-1.775646E-1,-1.7657554E-1,1.8736666E-2,2.4662378E-1,1.8928994E-1,-1.6100742E-1,1.0022434E-1,2.960048E-1,3.3965516E-1,-1.6364844E-1,-1.7313658E-1,-6.830888E-2,2.8805357E-1,8.525896E-2,-7.71171E-2,1.4175487E-1,8.595557E-2,-1.4982362E-1,1.04897186E-1,2.3251045E-1,-9.600554E-2,1.3493642E-1,-1.1401064E-1,1.3738464E-2,-4.7149643E-2,1.7901337E-1,2.9606406E-2,1.7851922E-1],"categories":[],"categories_nodes":[],"categories_segments":[],"categories_sizes":[],"default_left":[0,0,0,0,0,0,0,0,0,0,0,0,0,0,0,0,0,0,0,0,0,0,0,0,0,0,0,0,0,0,0,0,0,0,0,0,0,0,0,0,0,0,0,0,0,0,0,0,0,0,0,0,0,0,0,0,0,0,0,0,0,0,0,0,0,0,0,0,0,0,0,0,0,0,0,0,0,0,0,0,0,0,0,0,0,0,0],"id":14,"left_children":[1,3,5,7,9,11,13,-1,15,17,19,21,23,25,27,-1,29,-1,31,33,35,-1,37,39,41,-1,-1,43,45,47,49,-1,-1,-1,51,53,-1,55,57,59,-1,61,63,65,-1,67,-1,-1,-1,69,-1,-1,-1,-1,71,73,75,77,79,-1,81,-1,-1,83,-1,-1,-1,85,-1,-1,-1,-1,-1,-1,-1,-1,-1,-1,-1,-1,-1,-1,-1,-1,-1,-1,-1],"loss_changes":[2.4862787E1,5.2864246E0,5.6669064E0,1.296566E0,5.058428E0,5.382473E0,4.511645E0,0E0,2.0170279E0,6.11485E-1,4.60393E0,5.0225353E0,4.0640416E0,3.5952425E-1,3.2156026E0,0E0,1.8624334E0,0E0,3.8981676E-1,1.217589E0,4.77534E0,0E0,3.2429485E0,3.1941614E0,5.0399885E0,0E0,0E0,4.862109E0,2.5633316E0,1.8833461E0,9.7387505E-1,0E0,0E0,0E0,3.3034515E-1,1.6668277E0,0E0,2.808358E0,3.6808777E0,9.289384E-1,0E0,3.0032468E0,3.9055283E0,9.1754675E-1,0E0,3.4998226E0,0E0,0E0,0E0,3.581848E-1,0E0,0E0,0E0,0E0,1.3425102E0,3.4227037E0,2.5332444E0,2.0920677E0,3.3812318E0,0E0,5.390947E-1,0E0,0E0,3.1828978E0,0E0,0E0,0E0,8.810091E-1,0E0,0E0,0E0,0E0,0E0,0E0,0E0,0E0,0E0,0E0,0E0,0E0,0E0,0E0,0E0,0E0,0E0,0E0,0E0],"parents":[2147483647,0,0,1,1,2,2,3,3,4,4,5,5,6,6,8,8,9,9,10,10,11,11,12,12,13,13,14,14,16,16,18,18,19,19,20,20,22,22,23,23,24,24,27,27,28,28,29,29,30,30,34,34,35,35,37,37,38,38,39,39,41,41,42,42,43,43,45,45,49,49,54,54,55,55,56,56,57,57,58,58,60,60,63,63,67,67],"right_children":[2,4,6,8,10,12,14,-1,16,18,20,22,24,26,28,-1,30,-1,32,34,36,-1,38,40,42,-1,-1,44,46,48,50,-1,-1,-1,52,54,-1,56,58,60,-1,62,64,66,-1,68,-1,-1,-1,70,-1,-1,-1,-1,72,74,76,78,80,-1,82,-1,-1,84,-1,-1,-1,86,-1,-1,-1,-1,-1,-1,-1,-1,-1,-1,-1,-1,-1,-1,-1,-1,-1,-1,-1],"split_conditions":[7.746781E-2,1.1035203E-1,1.487096E0,9.26125E0,3.808675E0,2.3044463E-1,1.6181567E0,-1.6716352E-1,3.6272746E-1,6.1825323E-1,4E0,1E0,6E0,8.345051E0,5.088861E-1,6.570981E-2,5.3906417E-1,-4.1351695E-2,5.628866E0,3.7886716E-2,6.7715015E0,-9.4625585E-2,1.1437566E-1,1.2087913E1,4.2666396E-1,-1.7663084E-1,-6.508443E-2,6.9668937E0,5.5470367E1,2.5549936E0,1.154719E1,-1.7063923E-1,-6.030638E-2,1.494121E-2,4.757098E0,6.370834E0,-1.2541847E-1,1.6479282E-1,1.1338032E0,1.4995262E-1,8.236417E-2,9.8910674E-2,6.7061996E-1,2.4418886E-1,-7.971786E-2,3.1208563E0,-1.5212402E-1,-1.5006052E-1,5.9441403E-2,6.0484752E-2,-2.6509909E-2,-5.528665E-2,-1.7019019E-1,3.676466E-2,4.1263363E1,3.3457845E-1,6.4660555E-1,8.712713E0,3.7495797E0,-1.775646E-1,5.0542593E-1,1.8736666E-2,2.4662378E-1,2.3142841E-1,-1.6100742E-1,1.0022434E-1,2.960048E-1,1.0874359E1,-1.6364844E-1,-1.7313658E-1,-6.830888E-2,2.8805357E-1,8.525896E-2,-7.71171E-2,1.4175487E-1,8.595557E-2,-1.4982362E-1,1.04897186E-1,2.3251045E-1,-9.600554E-2,1.3493642E-1,-1.1401064E-1,1.3738464E-2,-4.7149643E-2,1.7901337E-1,2.9606406E-2,1.7851922E-1],"split_indices":[6,11,2,22,23,24,18,0,2,15,0,0,0,13,15,0,15,0,19,5,18,0,6,23,13,0,0,23,4,19,19,0,0,0,19,22,0,24,2,11,0,5,15,24,0,2,0,0,0,6,0,0,0,0,4,2,13,22,19,0,13,0,0,6,0,0,0,19,0,0,0,0,0,0,0,0,0,0,0,0,0,0,0,0,0,0,0],"split_type":[0,0,0,0,0,0,0,0,0,0,0,0,0,0,0,0,0,0,0,0,0,0,0,0,0,0,0,0,0,0,0,0,0,0,0,0,0,0,0,0,0,0,0,0,0,0,0,0,0,0,0,0,0,0,0,0,0,0,0,0,0,0,0,0,0,0,0,0,0,0,0,0,0,0,0,0,0,0,0,0,0,0,0,0,0,0,0],"sum_hessian":[4.928945E2,1.9138574E2,3.0150876E2,1.1459757E2,7.678817E1,2.3450217E2,6.700661E1,4.942809E1,6.516948E1,2.9279688E1,4.7508484E1,1.4918942E2,8.531274E1,1.8402493E1,4.860411E1,5.488601E0,5.968088E1,7.363284E0,2.1916403E1,2.0411661E1,2.7096825E1,9.851959E0,1.3933746E2,3.1973015E1,5.3339725E1,1.3190388E1,5.2121053E0,1.8497509E1,3.0106602E1,1.45544405E1,4.512644E1,1.6684587E1,5.2318153E0,8.368182E0,1.2043479E1,2.1768566E1,5.328259E0,5.5386303E1,8.395116E1,2.3824135E1,8.148879E0,2.223673E1,3.1102995E1,1.17423315E1,6.7551785E0,1.9600426E1,1.0506176E1,5.169616E0,9.384824E0,3.914849E1,5.977949E0,5.0368958E0,7.0065837E0,6.378429E0,1.5390137E1,4.0618988E1,1.4767312E1,6.1432125E1,2.2519035E1,1.3293386E1,1.0530748E1,8.239502E0,1.399723E1,2.0884825E1,1.021817E1,5.0728636E0,6.669468E0,1.4269031E1,5.3313947E0,3.397854E1,5.1699514E0,9.810712E0,5.5794244E0,7.231821E0,3.338717E1,6.451363E0,8.315949E0,1.942414E1,4.2007984E1,8.212434E0,1.4306602E1,5.1289487E0,5.4017997E0,1.1618847E1,9.265978E0,8.055453E0,6.2135773E0],"tree_param":{"num_deleted":"0","num_feature":"26","num_nodes":"87","size_leaf_vector":"1"}},{"base_weights":[1.0792846E-1,1.6943313E-1,-1.0426963E-1,-6.4583397E-3,2.2522032E-1,-5.145355E-1,1.4364648E-2,7.749056E-2,-3.6827663E-1,-8.489711E-2,2.5710893E-1,-8.839381E-2,-1.7337379E-1,-2.5023842E-1,1.6013463E-1,1.652479E-1,1.2338587E-2,-1.6831528E-1,-1.805768E-1,1.138437E-1,-4.4937763E-1,2.924368E-1,-3.3707503E-2,-7.1448614E-3,-4.977632E-1,5.702544E-1,1.3554662E-2,-2.1497291E-1,1.738117E-1,-1.6639172E-1,6.290927E-2,-9.500922E-2,3.9610347E-1,-1.7781307E-1,-6.74281E-2,2.4487671E-1,5.1536447E-1,1.2925655E-1,-1.8130322E-1,-1.685399E-1,3.352566E-1,-8.906782E-2,-1.930653E-1,-3.8091823E-2,8.7410146E-1,-9.7260945E-2,1.4610875E-1,-4.39304E-1,1.308615E-1,2.6866454E-1,-1.0344609E-1,1.8655182E-1,2.8746335E-2,2.0800571E-1,5.367696E-1,5.989128E-1,-2.963281E-3,7.400385E-2,-3.1120765E-1,2.2262312E-1,-4.3840896E-2,3.2819703E-1,1.6642296E-1,9.529055E-2,-3.962192E-1,-1.6797689E-1,-6.2032416E-2,1.763605E-1,-1.2132206E-1,1.773062E-1,-7.4276105E-3,7.0995994E-2,-1.013747E-1,-2.007753E-2,2.7048635E-1,2.298313E-1,7.365591E-2,-1.3434646E-1,2.435217E-2,-2.5158312E-2,1.9787091E-1,-4.0921252E-2,-1.7921963E-1],"categories":[],"categories_nodes":[],"categories_segments":[],"categories_sizes":[],"default_left":[0,0,0,0,0,0,0,0,0,0,0,0,0,0,0,0,0,0,0,0,0,0,0,0,0,0,0,0,0,0,0,0,0,0,0,0,0,0,0,0,0,0,0,0,0,0,0,0,0,0,0,0,0,0,0,0,0,0,0,0,0,0,0,0,0,0,0,0,0,0,0,0,0,0,0,0,0,0,0,0,0,0,0],"id":15,"left_children":[1,3,5,7,9,11,13,15,17,19,21,-1,-1,23,25,-1,27,-1,29,31,33,35,37,39,41,43,45,47,49,-1,-1,-1,51,-1,-1,53,55,-1,57,-1,59,-1,-1,-1,61,63,-1,65,67,69,-1,-1,-1,71,73,75,-1,-1,77,-1,-1,-1,-1,79,81,-1,-1,-1,-1,-1,-1,-1,-1,-1,-1,-1,-1,-1,-1,-1,-1,-1,-1],"loss_changes":[7.3763504E0,4.294549E0,6.2042527E0,3.258029E0,3.306923E0,2.28086E-1,3.8869452E0,2.6800673E0,6.294942E-1,2.3492355E0,3.1070824E0,0E0,0E0,2.1516252E0,3.894789E0,0E0,2.8859303E0,0E0,1.825501E0,2.7173564E0,2.3370147E-1,2.7249432E0,2.3786383E0,3.812851E0,3.2821465E-1,3.7269464E0,2.6103816E0,2.592825E0,2.3520083E0,0E0,0E0,0E0,8.43771E-1,0E0,0E0,2.2941236E0,2.0411253E0,0E0,1.531495E0,0E0,2.5420713E0,0E0,0E0,0E0,2.3682499E-1,2.3643947E0,0E0,4.4661283E-1,3.5715055E0,3.7403078E0,0E0,0E0,0E0,3.2093754E0,5.4427853E0,2.1770191E0,0E0,0E0,1.1360586E0,0E0,0E0,0E0,0E0,2.622023E0,7.5627255E-1,0E0,0E0,0E0,0E0,0E0,0E0,0E0,0E0,0E0,0E0,0E0,0E0,0E0,0E0,0E0,0E0,0E0,0E0],"parents":[2147483647,0,0,1,1,2,2,3,3,4,4,5,5,6,6,7,7,8,8,9,9,10,10,13,13,14,14,16,16,18,18,19,19,20,20,21,21,22,22,23,23,24,24,25,25,26,26,27,27,28,28,32,32,35,35,36,36,38,38,40,40,44,44,45,45,47,47,48,48,49,49,53,53,54,54,55,55,58,58,63,63,64,64],"right_children":[2,4,6,8,10,12,14,16,18,20,22,-1,-1,24,26,-1,28,-1,30,32,34,36,38,40,42,44,46,48,50,-1,-1,-1,52,-1,-1,54,56,-1,58,-1,60,-1,-1,-1,62,64,-1,66,68,70,-1,-1,-1,72,74,76,-1,-1,78,-1,-1,-1,-1,80,82,-1,-1,-1,-1,-1,-1,-1,-1,-1,-1,-1,-1,-1,-1,-1,-1,-1,-1],"split_conditions":[7.498688E-1,2.774893E0,1.0673912E-2,2.1359181E0,1.0280484E0,-1.325167E-1,9.94475E-2,7.06439E-1,9.9311507E-1,7.3283687E0,4.373024E-1,-8.839381E-2,-1.7337379E-1,4.9351394E-2,1.153926E-1,1.652479E-1,2.4615223E-2,-1.6831528E-1,3.5789726E0,4.115098E-1,7.1644746E-2,4.0566587E-1,2.5491895E-2,1.625093E1,2.4298892E0,3.085807E0,1.023579E0,5.927318E1,1.7918563E-1,-1.6639172E-1,6.290927E-2,-9.500922E-2,6.739335E0,-1.7781307E-1,-6.74281E-2,2.9736476E0,1.0120119E1,1.2925655E-1,-1.2825938E-1,-1.685399E-1,1.327044E0,-8.906782E-2,-1.930653E-1,-3.8091823E-2,5.5572325E-1,3.3358605E0,1.4610875E-1,9.29794E-2,1.5372853E0,8.482391E-1,-1.0344609E-1,1.8655182E-1,2.8746335E-2,1.9975182E1,2.3554553E-1,5.927318E1,-2.963281E-3,7.400385E-2,6.872865E-1,2.2262312E-1,-4.3840896E-2,3.2819703E-1,1.6642296E-1,4.266471E0,1.6585445E-1,-1.6797689E-1,-6.2032416E-2,1.763605E-1,-1.2132206E-1,1.773062E-1,-7.4276105E-3,7.0995994E-2,-1.013747E-1,-2.007753E-2,2.7048635E-1,2.298313E-1,7.365591E-2,-1.3434646E-1,2.435217E-2,-2.5158312E-2,1.9787091E-1,-4.0921252E-2,-1.7921963E-1],"split_indices":[15,23,21,2,4,10,24,14,14,13,24,0,0,21,8,0,9,0,1,17,9,16,16,4,18,13,11,4,21,0,0,0,25,0,0,1,23,0,17,0,1,0,0,0,2,18,0,24,23,12,0,0,0,25,16,4,0,0,24,0,0,0,0,13,8,0,0,0,0,0,0,0,0,0,0,0,0,0,0,0,0,0,0],"split_type":[0,0,0,0,0,0,0,0,0,0,0,0,0,0,0,0,0,0,0,0,0,0,0,0,0,0,0,0,0,0,0,0,0,0,0,0,0,0,0,0,0,0,0,0,0,0,0,0,0,0,0,0,0,0,0,0,0,0,0,0,0,0,0,0,0,0,0,0,0,0,0,0,0,0,0,0,0,0,0,0,0,0,0],"sum_hessian":[5.62833E2,4.3651315E2,1.2631987E2,1.0532333E2,3.3118982E2,2.7585482E1,9.873439E1,8.6126205E1,1.9197128E1,3.0725113E1,3.0046472E2,7.4357905E0,2.0149693E1,3.4817204E1,6.3917187E1,9.518541E0,7.660766E1,8.489267E0,1.0707861E1,2.0328318E1,1.0396795E1,2.6791348E2,3.255124E1,1.8084913E1,1.6732288E1,1.6068455E1,4.7848732E1,3.1679695E1,4.4927967E1,5.2524486E0,5.455412E0,8.001433E0,1.2326884E1,5.3464003E0,5.0503955E0,2.225355E2,4.537797E1,7.385612E0,2.5165627E1,6.6583366E0,1.1426577E1,8.313789E0,8.4185E0,5.0537987E0,1.1014656E1,3.941769E1,8.431039E0,1.9051414E1,1.2628281E1,3.8388966E1,6.5390015E0,6.4256105E0,5.9012733E0,1.990986E2,2.34369E1,3.902944E1,6.348532E0,5.650518E0,1.9515108E1,5.899471E0,5.527106E0,5.086705E0,5.927951E0,2.4389978E1,1.5027714E1,1.16172695E1,7.434145E0,6.759132E0,5.8691487E0,1.780933E1,2.0579636E1,1.8970996E2,9.388646E0,9.136284E0,1.4300614E1,2.570192E1,1.3327521E1,1.43705E1,5.1446075E0,1.915871E1,5.231268E0,7.290438E0,7.7372756E0],"tree_param":{"num_deleted":"0","num_feature":"26","num_nodes":"83","size_leaf_vector":"1"}},{"base_weights":[1.5465577E-1,3.451046E-1,3.142787E-2,4.007467E-1,1.0301501E-2,2.5331253E-1,-4.7044333E-2,3.1765416E-1,5.516992E-1,2.141683E-1,-1.7577888E-1,5.411735E-1,3.0416416E-2,-1.0978988E-1,2.6709104E-1,3.7806675E-1,-9.702156E-2,6.548586E-1,3.116882E-1,7.677674E-2,-3.1038857E-1,1.7440172E-1,8.6821526E-1,3.0121613E-1,-2.8371322E-1,7.670171E-2,-2.1206808E-1,-1.6039203E-1,4.757896E-1,2.6002306E-1,6.165014E-1,-1.32851E-1,1.418413E-1,4.3480122E-1,7.1426374E-1,4.946115E-1,-2.5868284E-2,-1.7664531E-1,5.109157E-3,-1.0832187E-1,2.3215355E-1,1.3057509E-1,2.9805663E-1,6.636563E-2,2.0016913E-1,-4.291036E-1,6.545421E-2,2.998702E-1,-1.00301534E-1,2.841973E-1,-2.6566178E-1,6.395256E-2,-1.3489956E-1,6.1702794E-1,-3.995803E-2,3.6521164E-1,4.7416054E-2,7.105983E-1,8.8030435E-2,1.9881104E-1,4.3810405E-2,2.5164524E-1,5.0957286E-1,2.9869268E-2,2.1767715E-1,1.324857E-1,-1.7433769E-1,3.2379517E-1,-1.2899525E-1,-1.8736306E-1,-4.3352153E-2,1.6556798E-1,2.0641531E-1,1.9510905E-1,-3.235238E-1,-4.9239155E-3,1.7821543E-1,9.859527E-2,-2.979617E-1,7.699836E-1,6.757973E-2,1.4420193E-1,-2.5503777E-2,-1.5372759E-1,8.7785855E-2,2.3197208E-1,1.1741278E-1,2.1099065E-1,3.650087E-2,-9.03792E-3,2.0595975E-1,1.7992763E-1,-1.4234637E-2,-1.1165364E-1,1.6567668E-1,-1.375325E-1,3.7765197E-2,-1.1587203E-1,-2.210271E-2,1.036914E-1,2.884408E-1],"categories":[],"categories_nodes":[],"categories_segments":[],"categories_sizes":[],"default_left":[0,0,0,0,0,0,0,0,0,0,0,0,0,0,0,0,0,0,0,0,0,0,0,0,0,0,0,0,0,0,0,0,0,0,0,0,0,0,0,0,0,0,0,0,0,0,0,0,0,0,0,0,0,0,0,0,0,0,0,0,0,0,0,0,0,0,0,0,0,0,0,0,0,0,0,0,0,0,0,0,0,0,0,0,0,0,0,0,0,0,0,0,0,0,0,0,0,0,0,0,0],"id":16,"left_children":[1,3,5,7,9,11,13,15,17,-1,19,21,23,25,27,29,31,33,35,-1,37,39,41,43,45,47,49,51,53,55,57,-1,-1,59,61,63,-1,-1,-1,65,-1,-1,-1,67,-1,69,-1,71,73,75,77,-1,-1,79,-1,81,83,85,-1,-1,-1,-1,87,-1,-1,-1,-1,89,-1,-1,-1,91,-1,93,95,-1,-1,-1,97,99,-1,-1,-1,-1,-1,-1,-1,-1,-1,-1,-1,-1,-1,-1,-1,-1,-1,-1,-1,-1,-1],"loss_changes":[1.3106354E1,4.0844803E0,5.939787E0,2.1849728E0,4.3548098E0,5.7007375E0,5.003245E0,3.1361122E0,1.4163513E0,0E0,1.6106308E0,4.505725E0,4.4475145E0,4.041721E0,3.8504462E0,2.8848763E0,3.4663565E0,2.7594948E-1,1.6135993E0,0E0,1.8823503E0,3.3975391E0,6.674576E-1,2.3645802E0,1.8635124E0,3.0117784E0,3.7075639E0,1.6763406E0,2.5488453E0,1.6397495E0,8.584366E-1,0E0,0E0,6.990671E-1,4.336033E-1,1.2904489E0,0E0,0E0,0E0,3.9393344E0,0E0,0E0,0E0,2.462286E0,0E0,9.745617E-1,0E0,1.63976E0,2.8884118E0,1.2945461E0,2.473794E0,0E0,0E0,1.2321262E0,0E0,2.6099586E0,3.6744153E0,2.268343E-1,0E0,0E0,0E0,0E0,1.0660055E0,0E0,0E0,0E0,0E0,1.6308559E0,0E0,0E0,0E0,2.4617312E0,0E0,4.0680943E0,1.5602269E0,0E0,0E0,0E0,2.3061514E0,1.0048761E0,0E0,0E0,0E0,0E0,0E0,0E0,0E0,0E0,0E0,0E0,0E0,0E0,0E0,0E0,0E0,0E0,0E0,0E0,0E0,0E0,0E0],"parents":[2147483647,0,0,1,1,2,2,3,3,4,4,5,5,6,6,7,7,8,8,10,10,11,11,12,12,13,13,14,14,15,15,16,16,17,17,18,18,20,20,21,21,22,22,23,23,24,24,25,25,26,26,27,27,28,28,29,29,30,30,33,33,34,34,35,35,39,39,43,43,45,45,47,47,48,48,49,49,50,50,53,53,55,55,56,56,57,57,62,62,67,67,71,71,73,73,74,74,78,78,79,79],"right_children":[2,4,6,8,10,12,14,16,18,-1,20,22,24,26,28,30,32,34,36,-1,38,40,42,44,46,48,50,52,54,56,58,-1,-1,60,62,64,-1,-1,-1,66,-1,-1,-1,68,-1,70,-1,72,74,76,78,-1,-1,80,-1,82,84,86,-1,-1,-1,-1,88,-1,-1,-1,-1,90,-1,-1,-1,92,-1,94,96,-1,-1,-1,98,100,-1,-1,-1,-1,-1,-1,-1,-1,-1,-1,-1,-1,-1,-1,-1,-1,-1,-1,-1,-1,-1],"split_conditions":[3.0763776E0,1.2588201E-1,1.8741915E-1,1.439108E0,1E0,1.4881633E-1,9.076701E-1,5.055659E0,9.2680854E-1,2.141683E-1,9.051309E-2,6.2593136E0,4.5859352E1,1.07744634E-1,3.2007992E-1,3.315251E-1,9.8349845E-1,1.7587303E-1,7.838378E-2,7.677674E-2,4.7828057E-1,1.8629032E0,1.7587303E-1,3.0617658E-2,6.6888547E0,9.788137E-2,6.2433976E-1,3.5917304E0,5.4072183E-1,6E0,2.8030798E0,-1.32851E-1,1.418413E-1,3.7258444E0,1.3762355E-1,-2.2370432E-2,-2.5868284E-2,-1.7664531E-1,5.109157E-3,5.3344082E-2,2.3215355E-1,1.3057509E-1,2.9805663E-1,3.8147643E-1,2.0016913E-1,8.334999E-1,6.545421E-2,9.890102E0,5.4966817E0,3.911605E-1,-5.5423087E-1,6.395256E-2,-1.3489956E-1,4.757098E0,-3.995803E-2,2.0306377E-1,8E0,2.4665022E0,8.8030435E-2,1.9881104E-1,4.3810405E-2,2.5164524E-1,4.6338937E-1,2.9869268E-2,2.1767715E-1,1.324857E-1,-1.7433769E-1,2.3606576E-2,-1.2899525E-1,-1.8736306E-1,-4.3352153E-2,4.3608997E-2,2.0641531E-1,1.6440903E-1,1.1570379E1,-4.9239155E-3,1.7821543E-1,9.859527E-2,1E0,6.2770563E-1,6.757973E-2,1.4420193E-1,-2.5503777E-2,-1.5372759E-1,8.7785855E-2,2.3197208E-1,1.1741278E-1,2.1099065E-1,3.650087E-2,-9.03792E-3,2.0595975E-1,1.7992763E-1,-1.4234637E-2,-1.1165364E-1,1.6567668E-1,-1.375325E-1,3.7765197E-2,-1.1587203E-1,-2.210271E-2,1.036914E-1,2.884408E-1],"split_indices":[23,10,16,2,0,24,17,19,17,0,21,13,4,24,16,16,12,7,11,0,7,1,7,16,25,10,1,13,16,0,19,0,0,19,24,8,0,0,0,11,0,0,0,12,0,17,0,13,23,2,17,0,0,19,0,24,0,23,0,0,0,0,12,0,0,0,0,10,0,0,0,11,0,11,23,0,0,0,7,19,0,0,0,0,0,0,0,0,0,0,0,0,0,0,0,0,0,0,0,0,0],"split_type":[0,0,0,0,0,0,0,0,0,0,0,0,0,0,0,0,0,0,0,0,0,0,0,0,0,0,0,0,0,0,0,0,0,0,0,0,0,0,0,0,0,0,0,0,0,0,0,0,0,0,0,0,0,0,0,0,0,0,0,0,0,0,0,0,0,0,0,0,0,0,0,0,0,0,0,0,0,0,0,0,0,0,0,0,0,0,0,0,0,0,0,0,0,0,0,0,0,0,0,0,0],"sum_hessian":[5.5792535E2,2.1847365E2,3.3945172E2,1.871702E2,3.1303438E1,8.810414E1,2.5134758E2,1.2272175E2,6.4448456E1,5.954031E0,2.5349407E1,3.7825794E1,5.027835E1,2.1004382E2,4.1303753E1,1.0719341E2,1.5528336E1,4.3865932E1,2.058252E1,5.811229E0,1.953818E1,1.8552616E1,1.9273176E1,2.702349E1,2.3254858E1,7.448315E1,1.3556068E2,1.3625575E1,2.7678177E1,7.309583E1,3.4097584E1,9.802354E0,5.725982E0,1.1092969E1,3.2772964E1,1.3934004E1,6.6485157E0,1.0127577E1,9.410602E0,1.3163455E1,5.389162E0,5.330049E0,1.3943128E1,1.7180843E1,9.8426485E0,1.81439E1,5.110958E0,3.2638214E1,4.184493E1,1.2793452E1,1.22767235E2,6.061205E0,7.56437E0,2.2456697E1,5.2214785E0,4.8421318E1,2.4674515E1,2.5477446E1,8.620139E0,5.476122E0,5.616847E0,1.8448904E1,1.432406E1,5.6691E0,8.264905E0,6.1158137E0,7.0476413E0,1.1542188E1,5.638655E0,1.0048704E1,8.095197E0,2.530853E1,7.3296847E0,1.806448E1,2.3780449E1,6.974272E0,5.819181E0,5.855329E0,1.169119E2,1.5456561E1,7.0001373E0,3.848427E1,9.937047E0,7.1835184E0,1.7490995E1,2.0109108E1,5.368337E0,9.010759E0,5.313301E0,6.3061986E0,5.235989E0,7.732295E0,1.7576235E1,6.962781E0,1.1101699E1,1.8274202E1,5.5062475E0,8.337403E1,3.3537872E1,5.6782336E0,9.778327E0],"tree_param":{"num_deleted":"0","num_feature":"26","num_nodes":"101","size_leaf_vector":"1"}},{"base_weights":[-4.1107103E-1,1.0229006E-2,-4.866893E-1,-1.5852055E-1,3.086381E-1,-1.5626557E-1,-5.132706E-1,9.800087E-2,-2.9144734E-1,7.2801733E-1,-1.15775384E-1,-1.5806532E-1,1.0860079E-1,-1.3298904E-2,-5.239947E-1,-4.8111406E-1,7.9421364E-2,5.712163E-2,3.3057356E-1,1.8458469E-1,-8.25628E-2,-5.43687E-1,-3.600157E-1,-6.655286E-2,-1.6849244E-1,-6.9012254E-2,-5.518071E-1,-1.6006188E-1,-2.0667122E-1,-9.506308E-2,-1.6678153E-1,-3.709785E-1,4.8137378E-2,-4.8440456E-2,-1.4859194E-1],"categories":[],"categories_nodes":[],"categories_segments":[],"categories_sizes":[],"default_left":[0,0,0,0,0,0,0,0,0,0,0,0,0,0,0,0,0,0,0,0,0,0,0,0,0,0,0,0,0,0,0,0,0,0,0],"id":17,"left_children":[1,3,5,7,9,11,13,-1,15,17,-1,-1,19,-1,21,23,-1,-1,-1,-1,-1,25,27,-1,-1,-1,29,-1,31,-1,-1,33,-1,-1,-1],"loss_changes":[1.0307659E1,2.576402E0,2.3281403E0,2.2055979E0,5.660902E0,2.202491E0,1.2508469E0,0E0,2.892627E0,2.1747117E0,0E0,0E0,2.8091385E0,0E0,6.03775E-1,2.90936E-1,0E0,0E0,0E0,0E0,0E0,4.3103027E-1,6.7484856E-1,0E0,0E0,0E0,3.0410767E-2,0E0,1.1028502E0,0E0,0E0,2.3912132E-1,0E0,0E0,0E0],"parents":[2147483647,0,0,1,1,2,2,3,3,4,4,5,5,6,6,8,8,9,9,12,12,14,14,15,15,21,21,22,22,26,26,28,28,31,31],"right_children":[2,4,6,8,10,12,14,-1,16,18,-1,-1,20,-1,22,24,-1,-1,-1,-1,-1,26,28,-1,-1,-1,30,-1,32,-1,-1,34,-1,-1,-1],"split_conditions":[-2.5246456E-2,9.142673E-1,1.563023E-3,-2.0574583E-1,2.8759742E0,-1.49854E-3,-7.4131274E-1,9.800087E-2,9.664919E0,-4.4173485E-1,-1.15775384E-1,-1.5806532E-1,9.63694E0,-1.3298904E-2,9.7782487E-1,-3.0751905E-1,7.9421364E-2,5.712163E-2,3.3057356E-1,1.8458469E-1,-8.25628E-2,1.508052E-1,8.892946E-2,-6.655286E-2,-1.6849244E-1,-6.9012254E-2,1.6626476E-1,-1.6006188E-1,1.0687282E1,-9.506308E-2,-1.6678153E-1,5.0077543E0,4.8137378E-2,-4.8440456E-2,-1.4859194E-1],"split_indices":[21,7,5,10,23,10,17,0,25,8,0,0,22,0,17,17,0,0,0,0,0,19,5,0,0,0,12,0,22,0,0,22,0,0,0],"split_type":[0,0,0,0,0,0,0,0,0,0,0,0,0,0,0,0,0,0,0,0,0,0,0,0,0,0,0,0,0,0,0,0,0,0,0],"sum_hessian":[3.2239423E2,4.9191765E1,2.7320248E2,3.1721897E1,1.7469868E1,2.085385E1,2.5234862E2,6.508393E0,2.5213505E1,1.0862697E1,6.6071715E0,8.279447E0,1.2574403E1,5.756618E0,2.4659201E2,1.8902477E1,6.311026E0,5.074898E0,5.787799E0,5.159746E0,7.414657E0,2.1808629E2,2.8505713E1,5.3694677E0,1.35330105E1,6.243796E0,2.118425E2,1.2209801E1,1.6295912E1,5.003716E0,2.0683878E2,1.1250367E1,5.045544E0,5.0459495E0,6.204417E0],"tree_param":{"num_deleted":"0","num_feature":"26","num_nodes":"35","size_leaf_vector":"1"}},{"base_weights":[-2.0238586E-2,-1.6736183E-1,2.6593715E-1,-3.9355776E-1,-5.1046014E-3,-3.3488873E-1,3.1955445E-1,-8.218902E-3,-4.2284393E-1,6.180302E-2,-3.3834895E-1,2.2305725E-2,-1.7410205E-1,1.5204294E-1,4.883202E-1,-1.4846839E-1,-4.7460714E-1,-7.410885E-2,2.881726E-1,4.482183E-2,-4.9801776E-1,-7.9121985E-2,3.057997E-1,1.7278259E-1,6.6679394E-1,-3.371113E-1,6.901323E-2,-1.6229013E-1,-2.6384383E-1,2.7272558E-2,-1.5949988E-1,-5.059019E-2,3.674422E-1,-1.6787893E-1,-6.7580715E-2,1.4674777E-1,-2.2375527E-1,2.1542577E-2,5.239575E-1,-9.60682E-2,3.003139E-1,7.6953745E-1,2.9857197E-1,-1.545794E-1,-2.2949167E-3,-4.0340632E-1,6.558654E-2,-3.1877357E-1,1.509367E-1,-5.8372777E-2,4.4478175E-1,-1.6818486E-1,-4.973794E-3,3.4243035E-1,-1.1068365E-1,6.8495893E-1,3.35629E-2,5.075549E-1,-4.3520564E-3,2.737419E-1,5.959021E-1,1.1588287E-2,1.5807183E-1,-1.4974159E-1,-3.6833134E-2,-1.3818887E-2,-1.6846888E-1,2.5687993E-1,1.7262395E-2,2.3587975E-1,4.259128E-2,9.687637E-2,-1.5000492E-1,1.6271147E-1,2.6187783E-2,3.6904663E-2,2.6707086E-1,2.1313427E-1,7.383216E-2,8.237907E-2,2.1776627E-1],"categories":[],"categories_nodes":[],"categories_segments":[],"categories_sizes":[],"default_left":[0,0,0,0,0,0,0,0,0,0,0,0,0,0,0,0,0,0,0,0,0,0,0,0,0,0,0,0,0,0,0,0,0,0,0,0,0,0,0,0,0,0,0,0,0,0,0,0,0,0,0,0,0,0,0,0,0,0,0,0,0,0,0,0,0,0,0,0,0,0,0,0,0,0,0,0,0,0,0,0,0],"id":18,"left_children":[1,3,5,7,9,11,13,-1,15,17,19,-1,-1,21,23,25,27,29,31,-1,33,35,37,39,41,43,-1,-1,45,47,-1,-1,49,-1,-1,-1,51,53,55,-1,57,59,61,-1,-1,63,-1,65,67,-1,69,-1,